{"learner":{"attributes":{"best_iteration":"414","best_ntree_limit":"415","best_score":"0.05935691802124601","scikit_learn":"{\"use_label_encoder\": null, \"n_estimators\": 600, \"objective\": \"binary:logistic\", \"max_depth\": 6, \"max_leaves\": null, \"max_bin\": null, \"grow_policy\": null, \"learning_rate\": 0.1, \"verbosity\": null, \"booster\": null, \"tree_method\": \"gpu_hist\", \"gamma\": 0.3, \"min_child_weight\": 1, \"max_delta_step\": null, \"subsample\": 0.74, \"sampling_method\": null, \"colsample_bytree\": 0.6, \"colsample_bylevel\": null, \"colsample_bynode\": null, \"reg_alpha\": 10, \"reg_lambda\": 0.1, \"scale_pos_weight\": null, \"base_score\": null, \"missing\": NaN, \"num_parallel_tree\": null, \"random_state\": 2022, \"n_jobs\": null, \"monotone_constraints\": null, \"interaction_constraints\": null, \"importance_type\": null, \"gpu_id\": null, \"validate_parameters\": null, \"predictor\": null, \"enable_categorical\": false, \"feature_types\": null, \"max_cat_to_onehot\": null, \"max_cat_threshold\": null, \"eval_metric\": null, \"early_stopping_rounds\": null, \"callbacks\": null, \"kwargs\": {\"eta\": 0.1}, \"classes_\": [0.0, 1.0], \"n_classes_\": 2, \"evals_result_\": {\"validation_0\": {\"logloss\": [0.6158205865917888, 0.5572751138906848, 0.5049832907447761, 0.45876853896571645, 0.4189857765367855, 0.3857800785014319, 0.3555136316376308, 0.3289469493786876, 0.30562095165434827, 0.28672511870180145, 0.2683807325662048, 0.25329126146815245, 0.23912481455657325, 0.2267068696061149, 0.21464677050025951, 0.20448399646128004, 0.19479631826314392, 0.18597518419329023, 0.17807154894747007, 0.1709870932148425, 0.16477491139063746, 0.15915200172829916, 0.15399232815401329, 0.14904204931965978, 0.14450701554516265, 0.14045843324100443, 0.13674008918261943, 0.13334335224021235, 0.13046854610645664, 0.12751830460005611, 0.12487164813330567, 0.12245040523856296, 0.12036673461079864, 0.11826587830893281, 0.11630360309468289, 0.11443446364306759, 0.11275971343831517, 0.11098476791891157, 0.10955201463175546, 0.10807765652462445, 0.10668689099020749, 0.10528638254551206, 0.10402048195899541, 0.10269289764289853, 0.10154996987849521, 0.10047918984281752, 0.09946462827204278, 0.0985095364562247, 0.09777162230135786, 0.096834463635258, 0.09592867952274799, 0.09509238586930414, 0.0943894299405854, 0.09354868112803782, 0.09285500777010354, 0.09209614094188975, 0.09138707896861005, 0.09070186156779014, 0.09010406363884092, 0.08953801104125451, 0.08886875773841352, 0.08825604905410132, 0.08768958299797605, 0.08705230899787406, 0.08655213536995453, 0.08612232446744036, 0.0855947132018648, 0.08502177783053762, 0.08458123716611159, 0.08413356754445438, 0.08375876475718277, 0.08330108059067418, 0.08287461722828135, 0.08251115549232343, 0.08213928576857174, 0.08176207840474324, 0.08133411333183767, 0.08094323667712107, 0.08069665084134195, 0.08030378033612769, 0.08005628770790874, 0.07978680219527255, 0.07938949677019738, 0.07908806727351746, 0.07876150055330995, 0.0784085208989951, 0.07812259188262578, 0.07791560220755374, 0.07773248700718674, 0.07746772101542607, 0.07724306245236372, 0.07695416690619972, 0.07663379995704374, 0.07642481486637552, 0.07613420355841471, 0.07587179016604707, 0.07576176819787636, 0.07547986377630504, 0.07536999690530007, 0.07515020566825753, 0.0749768092416117, 0.07481676680924575, 0.07458399075093104, 0.07435504888944398, 0.07413664256089136, 0.07394101041971167, 0.07374990902855516, 0.07355602033913203, 0.07336534816597616, 0.07321255523077025, 0.07298423073785294, 0.07280438731875324, 0.07263360704751076, 0.07242843067440384, 0.07222629294784884, 0.07204871965721542, 0.07189756201793186, 0.07178938042085972, 0.0716341670863662, 0.07153146138400908, 0.07133916245059321, 0.07116916228882265, 0.07106094853778373, 0.0709292465339152, 0.07076527208033824, 0.07062119964259764, 0.07048885439599974, 0.07032891008281845, 0.07025534571323745, 0.07011838255551082, 0.07000666670820926, 0.06983800284087845, 0.06969669513256964, 0.06951905072154381, 0.0693993448773848, 0.06926331323332928, 0.06908019666335201, 0.06900493180169937, 0.0689067653017993, 0.06875158947782366, 0.06855028689596186, 0.06841620811885855, 0.06838872770235406, 0.06828875103274379, 0.06821309260117263, 0.06806859554011517, 0.06790081892445032, 0.067831007710148, 0.0677594317541695, 0.06766200843392123, 0.06757795791087072, 0.06740086168671265, 0.0672996843239743, 0.06725753679316417, 0.06713506710074735, 0.06703770259972351, 0.06695027457828152, 0.0669135706160143, 0.06682611882548731, 0.06677413035468913, 0.06669193009790907, 0.06663258710510585, 0.06652390833455302, 0.0664324682936117, 0.06632297773878927, 0.0663153068791245, 0.06624282136747026, 0.0662066234704853, 0.06606224070340379, 0.06596013751752054, 0.06583945250981542, 0.06571878564402993, 0.06563615640227323, 0.06560980595645194, 0.06545803984047475, 0.06538109340709802, 0.0653575043699601, 0.06527931158887244, 0.0652181711850596, 0.06512191829644247, 0.06506483319142947, 0.06491187635612952, 0.06484036541621628, 0.06479957128274612, 0.06474801000778821, 0.06469907696033907, 0.06464255534555088, 0.06458856006963766, 0.0645268945324363, 0.06443610152240711, 0.06436340324889311, 0.06431693533891285, 0.06428021143265605, 0.06424846570990078, 0.06417159251154614, 0.064144432549918, 0.06411945267323875, 0.06403418591393441, 0.06398624561569054, 0.063927566900926, 0.06387726079342977, 0.06381882675662452, 0.06374041333759804, 0.06367729297809707, 0.06362700394245177, 0.0635560569654868, 0.06353432019309853, 0.06346091994475303, 0.06340673246115913, 0.06334222207587306, 0.06336023103865376, 0.06327872346138358, 0.0632019777228259, 0.06312951538275167, 0.06307251110196764, 0.06304790529889648, 0.062974592580598, 0.0629573370006251, 0.06289098723611829, 0.06283553307799838, 0.06282352262923015, 0.06282387410655563, 0.06279381031201542, 0.0627150928635232, 0.06267519645158122, 0.06269658478188367, 0.06268538134057446, 0.0626190149563696, 0.06255122659296336, 0.06252958864139263, 0.06246631151825289, 0.06245968645760629, 0.06248144552780344, 0.06244338470370712, 0.0623503704333117, 0.06229898727451295, 0.06226954811545221, 0.06220642592286171, 0.06215708555945377, 0.06213613169815963, 0.06204325217497449, 0.0620393345929871, 0.06199515099468741, 0.06194739954611692, 0.06191434369233496, 0.06192111106429163, 0.06188015542378324, 0.06187069317834538, 0.06182771412963792, 0.06183626162375867, 0.06179561633546472, 0.06174895803075836, 0.06170229768810819, 0.06166937240583107, 0.06162155048165752, 0.06161264007718924, 0.06159846773658015, 0.06155959601806278, 0.06152017257501532, 0.0614860802246888, 0.06148681407839069, 0.06147470725789626, 0.06145855851756279, 0.0614471952363442, 0.06144941616900389, 0.06145242579036079, 0.06145412632665632, 0.06141289468482918, 0.06137062931898449, 0.06136631573763484, 0.06136810739070404, 0.06136853542477897, 0.06138848296312448, 0.06137497937158875, 0.06138350024656819, 0.06142796434085002, 0.06141908385561064, 0.06141753093465909, 0.0613821970311825, 0.06136648474400858, 0.06132917296903533, 0.06130696210503498, 0.0612944894008432, 0.06130296730514165, 0.06126901615196736, 0.06126904756337598, 0.06121207214395807, 0.0611934759762706, 0.06115801199999907, 0.06114506122027902, 0.06114583994334722, 0.06114343554383588, 0.06112614923926611, 0.06110978469620964, 0.06110118021029765, 0.06105874375347325, 0.06104438110890871, 0.06105080859161426, 0.06102631866182231, 0.06100183244004614, 0.06099466160682616, 0.0609946717553628, 0.06099270275349575, 0.06097635308104377, 0.06092654248750835, 0.06091733678158098, 0.06089323100093297, 0.06089201795480036, 0.06086485695209024, 0.06086940156663841, 0.06085397752303282, 0.06083118760103576, 0.06083038430708242, 0.06085163505955301, 0.06084857016568791, 0.06084169638834985, 0.06081069177885186, 0.06078811802524076, 0.06080171775646271, 0.0607770240733779, 0.06074671484179926, 0.0606934467162414, 0.06072416122554047, 0.06071722616625633, 0.0607351634048959, 0.06072983165899393, 0.06072512066376275, 0.06071355730836835, 0.06068000146582333, 0.06064607439605934, 0.06064440488444658, 0.06063843452999219, 0.0606300154354537, 0.06062548389519196, 0.06060107211451002, 0.06060160933285234, 0.06059313519988124, 0.06054581497110512, 0.06051759484465663, 0.06047061191770681, 0.06045409973945558, 0.06049146511680738, 0.06046788072699424, 0.06043568578835781, 0.06045940144038307, 0.06046436360824387, 0.06043131465137046, 0.0604027382046191, 0.06036281867819577, 0.06035246925926299, 0.06029291151572227, 0.06025295605617264, 0.06024986244773646, 0.06026342711838327, 0.06023171554131608, 0.06022882665844953, 0.0602194154267934, 0.06021842342558419, 0.06021148920254368, 0.06019005592309085, 0.06014711974891531, 0.06015404781323132, 0.06011686431046628, 0.06008157185643939, 0.06006069385713181, 0.06003944073498629, 0.06002149442140223, 0.06001365515999504, 0.05995803143134769, 0.0599171195037288, 0.0599186332723067, 0.05990725066917803, 0.05988075174100726, 0.05988645087749982, 0.05986819988306406, 0.05983941346508218, 0.05976982412970803, 0.05976540502454147, 0.05972600165334484, 0.05969589607673715, 0.05963878591247272, 0.05962189847920132, 0.05959809569625244, 0.05956721466697261, 0.05954329547979834, 0.05951736530906634, 0.05948281272937831, 0.05949593659360784, 0.05947080379032373, 0.05944848674267897, 0.05947015199829263, 0.05944427201279526, 0.05943147964731451, 0.05942267289086683, 0.05942010638285331, 0.05943758035595685, 0.05948475378222044, 0.05948473634108063, 0.05948069860692294, 0.05946789628666161, 0.05943181678382205, 0.05946249635619552, 0.05943499287505813, 0.05940169840725762, 0.05938490278528426, 0.05939458971099328, 0.05941448101970915, 0.05939616770714851, 0.05940489688178801, 0.0594051089151009, 0.05938373707260219, 0.0593723047676205, 0.05937063498713085, 0.05936782358736333, 0.05935691802124601, 0.05937971227876293, 0.05940430721145615, 0.05938617618633098, 0.0594107088715887, 0.05942564325292194, 0.05940790551170889, 0.05940840327085817, 0.05942564741785991, 0.05941879940628695, 0.0594525406281247, 0.05946494053514442, 0.05945948556329858, 0.0594428666772405, 0.05942653834133048, 0.05943125673726021, 0.05941518077683555, 0.05942374881667584, 0.05941981698073127, 0.05942006099802337, 0.05942667521413256]}}, \"_estimator_type\": \"classifier\"}"},"feature_names":[],"feature_types":[],"gradient_booster":{"model":{"gbtree_model_param":{"num_parallel_tree":"1","num_trees":"435","size_leaf_vector":"0"},"tree_info":[0,0,0,0,0,0,0,0,0,0,0,0,0,0,0,0,0,0,0,0,0,0,0,0,0,0,0,0,0,0,0,0,0,0,0,0,0,0,0,0,0,0,0,0,0,0,0,0,0,0,0,0,0,0,0,0,0,0,0,0,0,0,0,0,0,0,0,0,0,0,0,0,0,0,0,0,0,0,0,0,0,0,0,0,0,0,0,0,0,0,0,0,0,0,0,0,0,0,0,0,0,0,0,0,0,0,0,0,0,0,0,0,0,0,0,0,0,0,0,0,0,0,0,0,0,0,0,0,0,0,0,0,0,0,0,0,0,0,0,0,0,0,0,0,0,0,0,0,0,0,0,0,0,0,0,0,0,0,0,0,0,0,0,0,0,0,0,0,0,0,0,0,0,0,0,0,0,0,0,0,0,0,0,0,0,0,0,0,0,0,0,0,0,0,0,0,0,0,0,0,0,0,0,0,0,0,0,0,0,0,0,0,0,0,0,0,0,0,0,0,0,0,0,0,0,0,0,0,0,0,0,0,0,0,0,0,0,0,0,0,0,0,0,0,0,0,0,0,0,0,0,0,0,0,0,0,0,0,0,0,0,0,0,0,0,0,0,0,0,0,0,0,0,0,0,0,0,0,0,0,0,0,0,0,0,0,0,0,0,0,0,0,0,0,0,0,0,0,0,0,0,0,0,0,0,0,0,0,0,0,0,0,0,0,0,0,0,0,0,0,0,0,0,0,0,0,0,0,0,0,0,0,0,0,0,0,0,0,0,0,0,0,0,0,0,0,0,0,0,0,0,0,0,0,0,0,0,0,0,0,0,0,0,0,0,0,0,0,0,0,0,0,0,0,0,0,0,0,0,0,0,0,0,0,0,0,0,0,0,0,0,0,0,0,0,0,0,0,0,0,0,0,0,0,0,0,0,0,0,0,0,0,0,0,0,0,0,0,0,0,0,0,0,0,0,0,0,0,0,0,0,0,0,0,0],"trees":[{"base_weights":[-3.2246903E-1,1.4241238E0,-1.5766612E0,1.7820988E0,-7.2837675E-1,-6.5450165E-3,-1.7683891E0,1.8576862E0,8.1756246E-1,3.3558136E-1,-1.2956641E0,1.1457425E0,-1.2197732E0,-5.777675E-1,-1.8758376E0,1.924711E0,1.3698574E0,1.4029729E0,-1.0278515E-1,9.870262E-1,-7.713065E-1,-6.6316974E-1,-1.6108122E0,1.4193006E0,-3.7321243E-1,2.8437865E-1,-1.4714454E0,6.939015E-1,-1.417493E0,-1.4554727E0,-1.9301648E0,1.935301E0,1.0213144E0,1.568867E0,3.0408773E-1,1.5349042E0,-0E0,7.725789E-1,-9.002136E-1,1.2393779E0,-0E0,-0E0,-1.1924119E0,-0E0,-1.439754E0,-0E0,-1.6299502E0,6.876856E-1,1.6638135E0,-1.0387216E0,3.3816424E-1,-5.37428E-1,9.7576946E-1,-1.1547344E-2,-1.632979E0,1.0311089E0,-4.067197E-1,-7.692308E-1,-1.717076E0,-3.372591E-1,-1.7730938E0,-1.9487007E0,-1.5287446E0,1.9360833E-1,-0E0,-0E0,1.326245E-1,1.6292365E-1,-0E0,9.270927E-2,-3.5714287E-2,1.5820692E-1,-0E0,2.917772E-2,-7.3569484E-2,-0E0,1.15778685E-1,2.0408165E-2,-1.2414837E-1,-0E0,1.3576746E-1,5.8419246E-2,-2.9608404E-2,-4.9222797E-2,6.464925E-2,-0E0,-1.3178857E-1,-6.55984E-2,4.718917E-2,-0E0,-1.5348008E-1,-0E0,-1.6527657E-1,-0E0,1.1173775E-1,4.4247787E-3,1.7085555E-1,-0E0,-1.4188616E-1,-1.1441647E-2,8.302354E-2,-0E0,-1.1359405E-1,-0E0,1.3020834E-1,6.284153E-2,-6.786427E-2,-1.7361844E-1,-2.2381378E-2,1.3244474E-1,8.304837E-3,2.6837805E-2,-9.594883E-2,-0E0,-1.2516384E-1,-0E0,-1.7418486E-1,1.709943E-2,-1.2897334E-1,-1.791871E-1,-0E0,-0E0,-1.9495097E-1,-4.357067E-2,-1.718766E-1],"categories":[],"categories_nodes":[],"categories_segments":[],"categories_sizes":[],"default_left":[0,0,0,0,0,0,0,0,0,0,0,0,0,0,0,0,0,0,0,0,0,0,0,0,0,0,0,0,0,0,0,0,0,0,0,0,0,0,0,0,0,0,0,0,0,0,0,0,0,0,0,0,0,0,0,0,0,0,0,0,0,0,0,0,0,0,0,0,0,0,0,0,0,0,0,0,0,0,0,0,0,0,0,0,0,0,0,0,0,0,0,0,0,0,0,0,0,0,0,0,0,0,0,0,0,0,0,0,0,0,0,0,0,0,0,0,0,0,0,0,0,0,0,0,0],"id":0,"left_children":[1,3,5,7,9,11,13,15,17,19,21,23,25,27,29,31,33,35,37,39,41,43,45,47,49,51,53,55,57,59,61,63,65,67,69,71,73,75,77,79,81,83,85,87,89,-1,91,93,95,97,99,101,103,105,107,109,111,113,115,117,119,121,123,-1,-1,-1,-1,-1,-1,-1,-1,-1,-1,-1,-1,-1,-1,-1,-1,-1,-1,-1,-1,-1,-1,-1,-1,-1,-1,-1,-1,-1,-1,-1,-1,-1,-1,-1,-1,-1,-1,-1,-1,-1,-1,-1,-1,-1,-1,-1,-1,-1,-1,-1,-1,-1,-1,-1,-1,-1,-1,-1,-1,-1,-1],"loss_changes":[6.584044E4,9.687586E3,5.249492E3,7.584375E2,1.0881333E3,2.670827E3,1.9694531E3,2.9307812E2,4.400542E2,4.459477E2,2.1068787E2,4.1579358E2,3.6570837E2,1.3935142E3,2.921914E2,5.4001953E1,2.4079932E2,1.0317993E2,2.118748E2,9.6053406E1,7.7585434E1,1.9466507E2,2.4593872E1,1.2522449E2,7.4906555E1,7.736299E1,1.7370862E2,1.9615982E2,1.27769165E2,5.672971E2,5.892578E1,1.21171875E1,3.9708893E1,8.144556E1,8.836977E1,2.733667E1,1.1536654E1,4.8550255E1,7.2148346E1,4.0969757E1,1.4520575E1,2.4544907E1,2.9990662E1,7.010072E1,2.5241913E1,0E0,2.0922363E1,7.360765E1,2.6909424E1,3.0702972E1,2.0997478E1,1.9598198E1,2.4961433E1,3.751586E1,8.505139E1,9.676578E1,4.91427E1,8.5601364E1,2.2431763E1,1.9206854E2,2.570459E1,1.8996094E1,9.92312E1,0E0,0E0,0E0,0E0,0E0,0E0,0E0,0E0,0E0,0E0,0E0,0E0,0E0,0E0,0E0,0E0,0E0,0E0,0E0,0E0,0E0,0E0,0E0,0E0,0E0,0E0,0E0,0E0,0E0,0E0,0E0,0E0,0E0,0E0,0E0,0E0,0E0,0E0,0E0,0E0,0E0,0E0,0E0,0E0,0E0,0E0,0E0,0E0,0E0,0E0,0E0,0E0,0E0,0E0,0E0,0E0,0E0,0E0,0E0,0E0,0E0,0E0],"parents":[2147483647,0,0,1,1,2,2,3,3,4,4,5,5,6,6,7,7,8,8,9,9,10,10,11,11,12,12,13,13,14,14,15,15,16,16,17,17,18,18,19,19,20,20,21,21,22,22,23,23,24,24,25,25,26,26,27,27,28,28,29,29,30,30,31,31,32,32,33,33,34,34,35,35,36,36,37,37,38,38,39,39,40,40,41,41,42,42,43,43,44,44,46,46,47,47,48,48,49,49,50,50,51,51,52,52,53,53,54,54,55,55,56,56,57,57,58,58,59,59,60,60,61,61,62,62],"right_children":[2,4,6,8,10,12,14,16,18,20,22,24,26,28,30,32,34,36,38,40,42,44,46,48,50,52,54,56,58,60,62,64,66,68,70,72,74,76,78,80,82,84,86,88,90,-1,92,94,96,98,100,102,104,106,108,110,112,114,116,118,120,122,124,-1,-1,-1,-1,-1,-1,-1,-1,-1,-1,-1,-1,-1,-1,-1,-1,-1,-1,-1,-1,-1,-1,-1,-1,-1,-1,-1,-1,-1,-1,-1,-1,-1,-1,-1,-1,-1,-1,-1,-1,-1,-1,-1,-1,-1,-1,-1,-1,-1,-1,-1,-1,-1,-1,-1,-1,-1,-1,-1,-1,-1,-1],"split_conditions":[2.7488017E0,-1.0757244E0,-1.626581E0,-2.8815043E-1,-1.1483321E0,7.745743E-3,-1.2232075E0,-1.5369244E0,-1.7460978E0,-5.2747023E-1,-7.258596E-1,5.725363E0,-2.4411724E0,-7.8359E-1,-6.3386726E-1,2.0498163E-1,-3.5436416E-1,1.1447265E0,-2.5266767E-1,1.3228059E-3,1.5901866E0,-2.2898626E-1,-5.1184416E0,-1.2518674E1,-1.1557654E0,-1.3112236E1,1.398616E1,1.1167813E1,-3.4488505E-1,-9.4255334E-1,-4.687337E0,3.9410193E0,5.047391E0,6.050607E-1,-1.8122696E0,-4.331887E-3,1.419813E1,-1.2536083E1,3.3985343E0,7.790453E0,-5.768378E0,7.0464234E0,-2.0089808E0,-5.466506E0,1.4806008E-1,-0E0,6.9794073E0,2.0802407E0,-2.0721145E0,8.729174E0,1.8770703E0,4.126972E-2,4.965476E0,5.042896E0,2.4887295E0,4.8730226E0,-1.7501473E0,1.0150056E1,-1.1383914E0,1.0848064E1,3.241754E0,-4.1504683E0,-1.2026672E0,1.9360833E-1,-0E0,-0E0,1.326245E-1,1.6292365E-1,-0E0,9.270927E-2,-3.5714287E-2,1.5820692E-1,-0E0,2.917772E-2,-7.3569484E-2,-0E0,1.15778685E-1,2.0408165E-2,-1.2414837E-1,-0E0,1.3576746E-1,5.8419246E-2,-2.9608404E-2,-4.9222797E-2,6.464925E-2,-0E0,-1.3178857E-1,-6.55984E-2,4.718917E-2,-0E0,-1.5348008E-1,-0E0,-1.6527657E-1,-0E0,1.1173775E-1,4.4247787E-3,1.7085555E-1,-0E0,-1.4188616E-1,-1.1441647E-2,8.302354E-2,-0E0,-1.1359405E-1,-0E0,1.3020834E-1,6.284153E-2,-6.786427E-2,-1.7361844E-1,-2.2381378E-2,1.3244474E-1,8.304837E-3,2.6837805E-2,-9.594883E-2,-0E0,-1.2516384E-1,-0E0,-1.7418486E-1,1.709943E-2,-1.2897334E-1,-1.791871E-1,-0E0,-0E0,-1.9495097E-1,-4.357067E-2,-1.718766E-1],"split_indices":[4319,4614,4614,4152,375,375,375,4614,4614,4614,4614,4319,4614,4614,375,503,375,5762,375,4102,4240,375,2887,6148,3189,6148,7593,7443,4614,4614,7358,3395,4661,154,4307,503,8418,6148,6227,7873,6599,8863,4440,7358,461,0,8281,4277,464,8222,4277,4019,4675,6384,6452,4319,375,7443,4440,7443,4805,3049,4614,0,0,0,0,0,0,0,0,0,0,0,0,0,0,0,0,0,0,0,0,0,0,0,0,0,0,0,0,0,0,0,0,0,0,0,0,0,0,0,0,0,0,0,0,0,0,0,0,0,0,0,0,0,0,0,0,0,0,0,0,0,0],"split_type":[0,0,0,0,0,0,0,0,0,0,0,0,0,0,0,0,0,0,0,0,0,0,0,0,0,0,0,0,0,0,0,0,0,0,0,0,0,0,0,0,0,0,0,0,0,0,0,0,0,0,0,0,0,0,0,0,0,0,0,0,0,0,0,0,0,0,0,0,0,0,0,0,0,0,0,0,0,0,0,0,0,0,0,0,0,0,0,0,0,0,0,0,0,0,0,0,0,0,0,0,0,0,0,0,0,0,0,0,0,0,0,0,0,0,0,0,0,0,0,0,0,0,0,0,0],"sum_hessian":[3.00555E4,1.25585E4,1.7497E4,1.077175E4,1.78675E3,1.90975E3,1.558725E4,9.97925E3,7.925E2,6.1525E2,1.1715E3,9.7525E2,9.345E2,1.298E3,1.428925E4,8.7555E3,1.22375E3,4.91E2,3.015E2,3.93E2,2.2225E2,4.0025E2,7.7125E2,8.32E2,1.4325E2,1.2825E2,8.0625E2,5.115E2,7.865E2,1.65675E3,1.26325E4,8.643E3,1.125E2,1.02325E3,2.005E2,4.54E2,3.7E1,1.3775E2,1.6375E2,3.1175E2,8.125E1,7.475E1,1.475E2,2.215E2,1.7875E2,8.75E0,7.625E2,2.1875E2,6.1325E2,8.125E1,6.2E1,5.2E1,7.625E1,8.65E1,7.1975E2,3.985E2,1.13E2,2.5925E2,5.2725E2,3.735E2,1.28325E3,1.205075E4,5.8175E2,8.63925E3,3.75E0,2.325E1,8.925E1,9.795E2,4.375E1,1.11E2,8.95E1,4.3825E2,1.575E1,1.875E1,1.825E1,4.025E1,9.75E1,3.175E1,1.32E2,2.975E1,2.82E2,2.9E1,5.225E1,3.85E1,3.625E1,9.5E0,1.38E2,9.975E1,1.2175E2,1.075E1,1.68E2,1.325E1,7.4925E2,7.7E1,1.4175E2,2.25E1,5.9075E2,2.25E1,5.875E1,2.175E1,4.025E1,2.525E1,2.675E1,1.875E1,5.75E1,3.65E1,5E1,6.64E2,5.575E1,2.9625E2,1.0225E2,4.275E1,7.025E1,1.0675E2,1.525E2,7.5E0,5.1975E2,2.3675E2,1.3675E2,1.2645E3,1.875E1,5E0,1.204575E4,9.4E1,4.8775E2],"tree_param":{"num_deleted":"0","num_feature":"9088","num_nodes":"125","size_leaf_vector":"0"}},{"base_weights":[-2.914329E-1,1.137914E0,-1.3548307E0,1.506359E0,-1.8117654E-1,3.8618892E-2,-1.5910718E0,6.363343E-1,1.6252444E0,-1.0329148E0,5.386065E-1,-8.237062E-1,7.55449E-1,-1.6900802E0,-6.602221E-1,1.068493E0,-2.6283103E-1,5.0133306E-1,1.666784E0,-1.3082808E0,-7.0504257E-3,-9.635013E-2,1.1334738E0,-1.220242E0,-1.9728614E-2,1.1975605E0,-1.7488036E-1,-1.0121387E0,-1.7295828E0,-1.200608E0,2.5108165E-1,2.8688946E-1,1.3800571E0,-1.1244336E0,2.0554097E-1,-4.3616956E-3,1.3183138E0,1.2370901E0,1.71789E0,-2.7595556E-1,-1.469166E0,5.3989387E-1,-6.449423E-1,-6.697285E-1,6.923495E-1,5.6421828E-2,1.3111955E0,-1.4504297E0,-3.6135593E-1,-5.410451E-1,7.746968E-1,4.0765134E-1,1.4657916E0,-8.827846E-1,4.9354115E-1,-1.3428965E0,-1.4220612E-1,-1.7547671E0,-9.8474663E-1,-1.453456E0,-2.1687347E-1,8.343633E-1,-5.5576164E-1,9.264555E-2,-3.335176E-2,1.4603314E-1,-0E0,-1.3206218E-1,-0E0,-3.4789424E-2,8.060564E-2,5.479878E-2,-6.189021E-2,-0E0,1.5148851E-1,1.4362541E-1,2.6754787E-2,1.1427199E-1,1.7364833E-1,-1.0281128E-1,1.0345696E-2,-1.5877123E-1,-6.6417396E-2,1.09995E-1,-0E0,1.1308198E-3,-9.956658E-2,-8.879024E-4,-1.2564288E-1,-0E0,1.1163252E-1,-4.1347597E-2,5.9326958E-2,3.7011556E-2,1.4488079E-1,-1.5268393E-1,-0E0,-7.118528E-2,6.154376E-2,-8.802368E-2,2.4202203E-2,-2.4054592E-2,1.1516948E-1,-4.099815E-3,1.1031803E-1,2.5397976E-5,1.5178569E-1,-1.0958042E-1,3.572685E-2,-7.8557583E-4,1.168342E-1,-1.4529799E-1,-4.8455345E-3,4.451827E-2,-8.602985E-2,-1.7594914E-1,3.4314457E-2,1.8912677E-2,-1.2734543E-1,-1.5101789E-1,-0E0,6.827726E-2,-7.013862E-2,-0E0,1.2113835E-1,-0E0,-1.11406446E-1],"categories":[],"categories_nodes":[],"categories_segments":[],"categories_sizes":[],"default_left":[0,0,0,0,0,0,0,0,0,0,0,0,0,0,0,0,0,0,0,0,0,0,0,0,0,0,0,0,0,0,0,0,0,0,0,0,0,0,0,0,0,0,0,0,0,0,0,0,0,0,0,0,0,0,0,0,0,0,0,0,0,0,0,0,0,0,0,0,0,0,0,0,0,0,0,0,0,0,0,0,0,0,0,0,0,0,0,0,0,0,0,0,0,0,0,0,0,0,0,0,0,0,0,0,0,0,0,0,0,0,0,0,0,0,0,0,0,0,0,0,0,0,0,0,0,0,0],"id":1,"left_children":[1,3,5,7,9,11,13,15,17,19,21,23,25,27,29,31,33,35,37,39,41,43,45,47,49,51,53,55,57,59,61,63,65,67,69,71,73,75,77,79,81,83,85,87,89,91,93,95,97,99,101,103,105,107,109,111,113,115,117,119,121,123,125,-1,-1,-1,-1,-1,-1,-1,-1,-1,-1,-1,-1,-1,-1,-1,-1,-1,-1,-1,-1,-1,-1,-1,-1,-1,-1,-1,-1,-1,-1,-1,-1,-1,-1,-1,-1,-1,-1,-1,-1,-1,-1,-1,-1,-1,-1,-1,-1,-1,-1,-1,-1,-1,-1,-1,-1,-1,-1,-1,-1,-1,-1,-1,-1],"loss_changes":[4.5447918E4,6.210385E3,5.660582E3,1.0088086E3,1.7081677E3,1.5322385E3,1.3282695E3,4.779605E2,3.8738867E2,3.480974E2,5.7672534E2,3.444607E2,5.698411E2,3.2721484E2,7.0885333E2,1.8400427E2,1.646141E2,1.4579509E2,1.5564062E2,1.486792E2,9.821985E1,3.241634E2,1.3605585E2,1.2838977E2,1.543218E2,1.7815625E2,2.079097E2,1.9910577E2,2.07E2,2.0672107E2,2.4840709E2,1.02850655E2,5.329431E1,3.3564575E1,8.5050125E1,6.553091E1,3.210298E1,1.602981E2,5.1478516E1,5.0182293E1,5.9177612E1,4.2189003E1,4.137808E1,1.5123222E2,9.030748E1,3.1809704E1,6.768335E1,6.429712E1,5.783976E1,6.908476E1,6.359449E1,8.7147644E1,3.7042725E1,6.465492E1,8.418619E1,6.056665E1,9.4157684E1,1.3398047E2,1.5395544E2,6.044641E1,8.387983E1,1.0898634E2,7.656453E1,0E0,0E0,0E0,0E0,0E0,0E0,0E0,0E0,0E0,0E0,0E0,0E0,0E0,0E0,0E0,0E0,0E0,0E0,0E0,0E0,0E0,0E0,0E0,0E0,0E0,0E0,0E0,0E0,0E0,0E0,0E0,0E0,0E0,0E0,0E0,0E0,0E0,0E0,0E0,0E0,0E0,0E0,0E0,0E0,0E0,0E0,0E0,0E0,0E0,0E0,0E0,0E0,0E0,0E0,0E0,0E0,0E0,0E0,0E0,0E0,0E0,0E0,0E0,0E0],"parents":[2147483647,0,0,1,1,2,2,3,3,4,4,5,5,6,6,7,7,8,8,9,9,10,10,11,11,12,12,13,13,14,14,15,15,16,16,17,17,18,18,19,19,20,20,21,21,22,22,23,23,24,24,25,25,26,26,27,27,28,28,29,29,30,30,31,31,32,32,33,33,34,34,35,35,36,36,37,37,38,38,39,39,40,40,41,41,42,42,43,43,44,44,45,45,46,46,47,47,48,48,49,49,50,50,51,51,52,52,53,53,54,54,55,55,56,56,57,57,58,58,59,59,60,60,61,61,62,62],"right_children":[2,4,6,8,10,12,14,16,18,20,22,24,26,28,30,32,34,36,38,40,42,44,46,48,50,52,54,56,58,60,62,64,66,68,70,72,74,76,78,80,82,84,86,88,90,92,94,96,98,100,102,104,106,108,110,112,114,116,118,120,122,124,126,-1,-1,-1,-1,-1,-1,-1,-1,-1,-1,-1,-1,-1,-1,-1,-1,-1,-1,-1,-1,-1,-1,-1,-1,-1,-1,-1,-1,-1,-1,-1,-1,-1,-1,-1,-1,-1,-1,-1,-1,-1,-1,-1,-1,-1,-1,-1,-1,-1,-1,-1,-1,-1,-1,-1,-1,-1,-1,-1,-1,-1,-1,-1,-1],"split_conditions":[-9.7325927E-1,-9.372075E-1,2.560046E0,3.1332517E0,3.759668E0,2.7321947E0,5.228776E0,1.0184631E-1,2.6947417E0,8.3733726E-1,3.611494E0,5.3308516E0,-1.8752134E0,6.459813E0,2.9946747E0,4.7509174E0,3.99666E0,2.4704561E0,-3.3502913E-1,3.5088775E0,-1.8943315E0,-5.6420183E0,-1.1406388E0,1.0111986E1,-5.5157213E0,4.4467034E0,4.7509174E0,3.0382912E0,4.4791102E-2,-5.2695775E0,1.1319526E-1,-3.1065683E0,2.4321463E0,3.6845884E0,-1.1187491E-1,3.935832E0,4.8174314E0,4.0266824E0,4.6682777E0,3.1332517E0,4.8955503E0,7.184763E0,-7.310867E-1,3.0335011E0,7.040216E0,-1.04628906E-1,-4.245968E-1,3.7527385E0,-8.649818E0,5.380549E-1,6.5427847E0,1.6055268E-1,2.206581E0,2.8061002E-1,2.298497E-1,5.1245975E-1,3.6906347E0,5.6129646E0,-3.0018802E0,5.4203243E0,-5.6894464E0,-5.951804E0,1.0360452E1,9.264555E-2,-3.335176E-2,1.4603314E-1,-0E0,-1.3206218E-1,-0E0,-3.4789424E-2,8.060564E-2,5.479878E-2,-6.189021E-2,-0E0,1.5148851E-1,1.4362541E-1,2.6754787E-2,1.1427199E-1,1.7364833E-1,-1.0281128E-1,1.0345696E-2,-1.5877123E-1,-6.6417396E-2,1.09995E-1,-0E0,1.1308198E-3,-9.956658E-2,-8.879024E-4,-1.2564288E-1,-0E0,1.1163252E-1,-4.1347597E-2,5.9326958E-2,3.7011556E-2,1.4488079E-1,-1.5268393E-1,-0E0,-7.118528E-2,6.154376E-2,-8.802368E-2,2.4202203E-2,-2.4054592E-2,1.1516948E-1,-4.099815E-3,1.1031803E-1,2.5397976E-5,1.5178569E-1,-1.0958042E-1,3.572685E-2,-7.8557583E-4,1.168342E-1,-1.4529799E-1,-4.8455345E-3,4.451827E-2,-8.602985E-2,-1.7594914E-1,3.4314457E-2,1.8912677E-2,-1.2734543E-1,-1.5101789E-1,-0E0,6.827726E-2,-7.013862E-2,-0E0,1.2113835E-1,-0E0,-1.11406446E-1],"split_indices":[503,4152,4159,4914,5994,4914,5994,8146,5994,3450,4914,5994,4444,7410,4914,5994,7656,5049,4185,6227,4444,7199,3450,5097,7199,5994,5994,4914,377,7358,5235,4444,4640,6429,6714,6227,2765,6227,4742,4914,3058,7410,120,4159,4254,6714,4525,5049,7825,3450,4148,7159,5013,5320,3450,6931,6227,6429,4444,4277,4184,7358,5633,0,0,0,0,0,0,0,0,0,0,0,0,0,0,0,0,0,0,0,0,0,0,0,0,0,0,0,0,0,0,0,0,0,0,0,0,0,0,0,0,0,0,0,0,0,0,0,0,0,0,0,0,0,0,0,0,0,0,0,0,0,0,0,0],"split_type":[0,0,0,0,0,0,0,0,0,0,0,0,0,0,0,0,0,0,0,0,0,0,0,0,0,0,0,0,0,0,0,0,0,0,0,0,0,0,0,0,0,0,0,0,0,0,0,0,0,0,0,0,0,0,0,0,0,0,0,0,0,0,0,0,0,0,0,0,0,0,0,0,0,0,0,0,0,0,0,0,0,0,0,0,0,0,0,0,0,0,0,0,0,0,0,0,0,0,0,0,0,0,0,0,0,0,0,0,0,0,0,0,0,0,0,0,0,0,0,0,0,0,0,0,0,0,0],"sum_hessian":[2.9899016E4,1.2750821E4,1.7148195E4,9.972808E3,2.7780134E3,2.47969E3,1.4668505E4,1.2091056E3,8.763702E3,1.2787201E3,1.4992933E3,1.119273E3,1.360417E3,1.3248522E4,1.4199828E3,8.241186E2,3.84987E2,3.2098746E2,8.442715E3,1.0004109E3,2.7830917E2,7.1711914E2,7.821742E2,7.4120685E2,3.780661E2,9.294456E2,4.309714E2,7.4355115E2,1.2504971E4,8.982682E2,5.2171454E2,2.4408475E2,5.800338E2,1.4304898E2,2.41938E2,1.9076627E2,1.302212E2,9.184731E2,7.5242417E3,1.4330672E2,8.571042E2,1.4140434E2,1.3690485E2,4.2259216E2,2.9452698E2,1.1877264E2,6.6340155E2,5.753082E2,1.6589862E2,2.3589023E2,1.4217587E2,2.4512231E2,6.843233E2,2.1655421E2,2.144172E2,5.303549E2,2.1319621E2,1.2082865E4,4.2210547E2,7.0647156E2,1.9179663E2,3.1000027E2,2.1171425E2,1.28099E2,1.1598575E2,5.4299774E2,3.703606E1,1.2292179E2,2.0127192E1,1.17260445E2,1.2467757E2,9.190261E1,9.886365E1,1.7637638E1,1.1258357E2,7.53356E2,1.6511708E2,2.5265288E2,7.271589E3,5.6830338E1,8.647638E1,7.361728E2,1.20931366E2,6.886119E1,7.2543144E1,3.7786167E1,9.911868E1,2.0680095E2,2.1579123E2,1.08830444E2,1.8569653E2,5.341485E1,6.535779E1,9.394993E1,5.6945166E2,5.4673816E2,2.8570099E1,1.2964395E2,3.6254658E1,1.7349667E2,6.2393547E1,3.1326233E1,1.1084963E2,1.4032349E2,1.0479882E2,3.0070215E1,6.5425305E2,1.9169939E2,2.4854826E1,1.1456883E2,9.984837E1,4.8165576E2,4.869918E1,1.096315E2,1.03564705E2,1.2060489E4,2.2376537E1,7.649151E1,3.4561395E2,6.8089453E2,2.5577072E1,5.9897804E1,1.3189882E2,8.871868E1,2.212816E2,9.74131E1,1.1430115E2],"tree_param":{"num_deleted":"0","num_feature":"9088","num_nodes":"127","size_leaf_vector":"0"}},{"base_weights":[-2.6764417E-1,1.1848694E0,-1.3457818E0,1.4614993E0,-3.259876E-2,1.4787214E-1,-1.5021746E0,1.5291367E0,4.8699975E-1,-7.7863944E-1,9.016073E-1,-5.677606E-1,9.4848394E-1,-8.045912E-1,-1.5746657E0,1.5715072E0,7.366159E-1,1.1204418E0,-1.6312724E-1,-2.658344E-1,-1.2810528E0,1.3364742E0,1.5265624E-1,2.379146E-1,-1.096014E0,1.143576E0,-6.1659765E-1,-1.2407093E0,8.916536E-2,-1.1810595E0,-1.6271837E0,8.515481E-1,1.5972556E0,-1.2042334E-1,1.0331295E0,-0E0,1.2823026E0,-9.3114877E-1,4.222919E-1,-9.027153E-1,2.4689184E-1,-1.454121E0,-5.5948675E-1,-0E0,1.4423736E0,5.967192E-1,-7.105712E-1,7.135028E-1,-5.881938E-1,4.5253938E-1,-1.2037256E0,-0E0,1.3255671E0,-1.0466169E0,-0E0,-7.723005E-2,-1.3440939E0,6.798647E-1,-5.0710416E-1,-1.3991576E0,-4.8663944E-1,-1.0585121E0,-1.6397218E0,1.2584627E-1,2.373039E-3,1.6300915E-1,1.2712227E-1,6.013679E-2,-5.986097E-2,1.2664673E-1,-0E0,-5.4280568E-2,3.410309E-2,-0E0,1.3470507E-1,-0E0,-1.115238E-1,-3.034753E-2,8.1857026E-2,-0E0,-1.157557E-1,7.865905E-2,-1.9676397E-2,-0E0,-1.4975844E-1,5.1472033E-3,-9.264086E-2,4.428313E-2,-5.01583E-2,1.4789878E-1,-0E0,1.0356381E-1,-2.9218688E-3,-0E0,-1.1257428E-1,-0E0,1.01713516E-1,1.17776515E-2,-9.24574E-2,-0E0,9.333598E-2,-0E0,-1.314783E-1,-4.610398E-2,5.9846997E-2,1.3866104E-1,-0E0,-0E0,-1.2686695E-1,4.8349705E-2,-0E0,-7.567451E-2,4.6537925E-2,-1.4439355E-1,-5.37494E-2,1.02978766E-1,-7.7986317E-3,9.841337E-3,-1.06974974E-1,-1.00084126E-1,-1.5820935E-1,6.2798853E-3,-9.527193E-2,-1.3404004E-2,-1.331623E-1,-1.3629644E-1,-1.6559033E-1],"categories":[],"categories_nodes":[],"categories_segments":[],"categories_sizes":[],"default_left":[0,0,0,0,0,0,0,0,0,0,0,0,0,0,0,0,0,0,0,0,0,0,0,0,0,0,0,0,0,0,0,0,0,0,0,0,0,0,0,0,0,0,0,0,0,0,0,0,0,0,0,0,0,0,0,0,0,0,0,0,0,0,0,0,0,0,0,0,0,0,0,0,0,0,0,0,0,0,0,0,0,0,0,0,0,0,0,0,0,0,0,0,0,0,0,0,0,0,0,0,0,0,0,0,0,0,0,0,0,0,0,0,0,0,0,0,0,0,0,0,0,0,0,0,0,0,0],"id":2,"left_children":[1,3,5,7,9,11,13,15,17,19,21,23,25,27,29,31,33,35,37,39,41,43,45,47,49,51,53,55,57,59,61,63,65,67,69,71,73,75,77,79,81,83,85,87,89,91,93,95,97,99,101,103,105,107,109,111,113,115,117,119,121,123,125,-1,-1,-1,-1,-1,-1,-1,-1,-1,-1,-1,-1,-1,-1,-1,-1,-1,-1,-1,-1,-1,-1,-1,-1,-1,-1,-1,-1,-1,-1,-1,-1,-1,-1,-1,-1,-1,-1,-1,-1,-1,-1,-1,-1,-1,-1,-1,-1,-1,-1,-1,-1,-1,-1,-1,-1,-1,-1,-1,-1,-1,-1,-1,-1],"loss_changes":[4.5933492E4,4.221383E3,3.947039E3,6.5112695E2,1.6061887E3,9.1485297E2,7.471875E2,2.963086E2,2.858459E2,3.1640466E2,3.1667126E2,3.6314682E2,2.3650476E2,5.761822E2,2.569961E2,1.4258594E2,1.3494238E2,5.789276E1,1.505086E2,2.1802301E2,5.9811646E1,8.6269165E1,1.455438E2,1.2799257E2,9.274225E1,1.2926099E2,2.9210302E1,1.0378894E2,1.6647227E2,2.305686E2,5.9498047E1,9.667653E1,6.3865234E1,4.096714E1,9.603107E1,7.92828E0,2.1224243E1,3.4344162E1,5.584194E1,7.477286E1,8.9742165E1,1.9492798E1,3.90878E1,1.0654192E1,3.5268433E1,8.158237E1,4.0463158E1,5.3201897E1,3.424691E1,9.567557E0,6.3346558E1,2.8908848E1,5.278003E1,1.3423019E1,3.2672822E0,3.541906E1,5.203418E1,7.406911E1,8.615982E1,6.455713E1,1.12577774E2,5.593466E1,2.2759766E1,0E0,0E0,0E0,0E0,0E0,0E0,0E0,0E0,0E0,0E0,0E0,0E0,0E0,0E0,0E0,0E0,0E0,0E0,0E0,0E0,0E0,0E0,0E0,0E0,0E0,0E0,0E0,0E0,0E0,0E0,0E0,0E0,0E0,0E0,0E0,0E0,0E0,0E0,0E0,0E0,0E0,0E0,0E0,0E0,0E0,0E0,0E0,0E0,0E0,0E0,0E0,0E0,0E0,0E0,0E0,0E0,0E0,0E0,0E0,0E0,0E0,0E0,0E0,0E0],"parents":[2147483647,0,0,1,1,2,2,3,3,4,4,5,5,6,6,7,7,8,8,9,9,10,10,11,11,12,12,13,13,14,14,15,15,16,16,17,17,18,18,19,19,20,20,21,21,22,22,23,23,24,24,25,25,26,26,27,27,28,28,29,29,30,30,31,31,32,32,33,33,34,34,35,35,36,36,37,37,38,38,39,39,40,40,41,41,42,42,43,43,44,44,45,45,46,46,47,47,48,48,49,49,50,50,51,51,52,52,53,53,54,54,55,55,56,56,57,57,58,58,59,59,60,60,61,61,62,62],"right_children":[2,4,6,8,10,12,14,16,18,20,22,24,26,28,30,32,34,36,38,40,42,44,46,48,50,52,54,56,58,60,62,64,66,68,70,72,74,76,78,80,82,84,86,88,90,92,94,96,98,100,102,104,106,108,110,112,114,116,118,120,122,124,126,-1,-1,-1,-1,-1,-1,-1,-1,-1,-1,-1,-1,-1,-1,-1,-1,-1,-1,-1,-1,-1,-1,-1,-1,-1,-1,-1,-1,-1,-1,-1,-1,-1,-1,-1,-1,-1,-1,-1,-1,-1,-1,-1,-1,-1,-1,-1,-1,-1,-1,-1,-1,-1,-1,-1,-1,-1,-1,-1,-1,-1,-1,-1,-1],"split_conditions":[2.846533E0,9.0847546E-1,1.14252925E-1,-1.1575525E0,7.9349937E0,8.782068E0,-9.934633E-1,-1.1521417E-1,7.6268816E-1,-8.753233E-1,1.2350074E0,-2.173084E0,6.4277935E0,6.3625705E-1,4.019608E0,-4.644305E-1,4.2552167E-1,-3.7220368E-1,3.1542683E0,1.0030529E1,8.9790916E-1,2.3742878E0,1.0830843E0,4.826413E0,-1.5895574E0,-1.8586636E-2,-2.2728729E-1,4.157755E0,4.385949E0,9.1398835E-1,3.777506E0,1.1276193E0,-1.4084604E0,-1.7606592E-1,4.140666E0,-2.601876E-1,4.8099594E0,-8.805878E-1,-8.210343E-2,1.1735616E0,4.3649473E0,-4.8426652E-1,-5.981903E0,1.1369547E1,4.2300386E0,-7.374566E0,7.6295614E0,6.8273854E-1,-7.5214005E-1,-1.8155366E-1,4.1867123E0,7.3822827E0,1.6148937E0,5.3918595E0,2.168799E-1,4.840936E-1,6.5562744E0,8.029046E0,7.470313E0,7.3777065E0,4.786711E0,-1.595187E0,6.62448E0,1.2584627E-1,2.373039E-3,1.6300915E-1,1.2712227E-1,6.013679E-2,-5.986097E-2,1.2664673E-1,-0E0,-5.4280568E-2,3.410309E-2,-0E0,1.3470507E-1,-0E0,-1.115238E-1,-3.034753E-2,8.1857026E-2,-0E0,-1.157557E-1,7.865905E-2,-1.9676397E-2,-0E0,-1.4975844E-1,5.1472033E-3,-9.264086E-2,4.428313E-2,-5.01583E-2,1.4789878E-1,-0E0,1.0356381E-1,-2.9218688E-3,-0E0,-1.1257428E-1,-0E0,1.01713516E-1,1.17776515E-2,-9.24574E-2,-0E0,9.333598E-2,-0E0,-1.314783E-1,-4.610398E-2,5.9846997E-2,1.3866104E-1,-0E0,-0E0,-1.2686695E-1,4.8349705E-2,-0E0,-7.567451E-2,4.6537925E-2,-1.4439355E-1,-5.37494E-2,1.02978766E-1,-7.7986317E-3,9.841337E-3,-1.06974974E-1,-1.00084126E-1,-1.5820935E-1,6.2798853E-3,-9.527193E-2,-1.3404004E-2,-1.331623E-1,-1.3629644E-1,-1.6559033E-1],"split_indices":[4319,5029,5029,4638,4254,4411,375,293,4319,2887,4319,4638,4319,4794,4319,4794,4794,4794,4324,5097,4794,4914,4640,4319,5029,4794,3450,7565,4319,4794,7565,4319,4378,5029,4159,7081,5009,5029,4794,4159,4815,4319,2731,7471,4159,4317,7410,4794,5029,3627,4363,4254,5762,8200,5433,4805,4508,7410,7410,7410,7352,6265,7410,0,0,0,0,0,0,0,0,0,0,0,0,0,0,0,0,0,0,0,0,0,0,0,0,0,0,0,0,0,0,0,0,0,0,0,0,0,0,0,0,0,0,0,0,0,0,0,0,0,0,0,0,0,0,0,0,0,0,0,0,0,0,0,0],"split_type":[0,0,0,0,0,0,0,0,0,0,0,0,0,0,0,0,0,0,0,0,0,0,0,0,0,0,0,0,0,0,0,0,0,0,0,0,0,0,0,0,0,0,0,0,0,0,0,0,0,0,0,0,0,0,0,0,0,0,0,0,0,0,0,0,0,0,0,0,0,0,0,0,0,0,0,0,0,0,0,0,0,0,0,0,0,0,0,0,0,0,0,0,0,0,0,0,0,0,0,0,0,0,0,0,0,0,0,0,0,0,0,0,0,0,0,0,0,0,0,0,0,0,0,0,0,0,0],"sum_hessian":[2.9330326E4,1.2491693E4,1.6838633E4,1.0185552E4,2.3061414E3,1.589919E3,1.5248713E4,9.514835E3,6.707173E2,1.28816E3,1.01798126E3,8.329337E2,7.569853E2,1.44854E3,1.3800173E4,9.019889E3,4.9494574E2,3.4747208E2,3.232452E2,6.47413E2,6.40747E2,6.355364E2,3.824449E2,3.2237787E2,5.1055585E2,6.7878864E2,7.819662E1,9.8100024E2,4.6753976E2,1.6472546E3,1.2152918E4,3.2497366E2,8.694915E3,1.1856911E2,3.7637665E2,4.699965E1,3.004724E2,1.4717998E2,1.7606525E2,2.974117E2,3.500013E2,5.0553406E2,1.3521297E2,4.8444016E1,5.870924E2,2.6020505E2,1.2223982E2,2.1228474E2,1.1009313E2,2.714438E1,4.8341144E2,1.0005296E2,5.7873566E2,5.3741264E1,2.4455357E1,8.7964005E1,8.9303625E2,2.4328468E2,2.2425507E2,1.2425135E3,4.0474112E2,2.795585E2,1.187336E4,2.0974254E2,1.15231125E2,7.871114E3,8.2380145E2,3.8905567E1,7.966354E1,3.103019E2,6.607473E1,1.3575663E1,3.3423985E1,1.6503807E1,2.8396863E2,1.6995964E1,1.3018402E2,5.3277805E1,1.2278744E2,6.07742E1,2.3663753E2,1.6804298E2,1.8195833E2,2.0232101E1,4.8530197E2,4.0540874E1,9.467209E1,2.844662E1,1.9997395E1,5.745023E2,1.259009E1,1.6230467E2,9.790037E1,4.166896E1,8.057086E1,5.6450386E1,1.5583435E2,2.5955763E1,8.413737E1,9.857246E0,1.7287134E1,4.1587925E1,4.4182352E2,4.7962986E1,5.208998E1,5.56344E2,2.2391666E1,8.858282E0,4.488298E1,1.3876521E1,1.0578835E1,4.7219967E1,4.0744038E1,7.83569E2,1.09467316E2,1.7543863E2,6.784606E1,9.9491714E1,1.2476336E2,4.0846072E2,8.3405286E2,1.7595157E2,2.2878955E2,7.213797E1,2.0742055E2,6.904772E2,1.1182883E4],"tree_param":{"num_deleted":"0","num_feature":"9088","num_nodes":"127","size_leaf_vector":"0"}},{"base_weights":[-2.4888825E-1,1.1284921E0,-1.2281171E0,1.4311798E0,-5.607505E-1,7.553355E-2,-1.4025494E0,1.5212107E0,9.652502E-1,-4.987994E-2,-1.2792592E0,9.3886477E-1,-7.8350157E-1,-1.4882941E0,-5.445431E-1,1.5396563E0,6.98311E-1,1.2675481E0,-1.6447742E-2,5.724217E-1,-7.4967813E-1,-8.615974E-2,-1.370392E0,1.1837779E0,-3.514323E-1,3.754013E-2,-1.2264688E0,-5.655002E-1,-1.5092161E0,3.4996924E-1,-1.0570885E0,1.5572745E0,1.1165005E0,1.1533885E0,-0E0,1.257799E-1,1.3271666E0,-6.8055123E-1,5.4131836E-1,7.494633E-2,1.1736389E0,5.4191124E-2,-1.0044411E0,-6.467863E-1,2.5359312E-1,-0E0,-1.4214872E0,1.2925191E0,-0E0,1.9732411E-1,-8.408303E-1,6.6345704E-1,-6.620613E-1,2.0623758E-2,-1.3054518E0,5.5156477E-2,-1.171011E0,-8.241511E-1,-1.5268021E0,9.196799E-1,-4.1193575E-1,-1.1586417E0,-0E0,1.5585761E-1,-0E0,1.4092112E-1,4.3654628E-2,-0E0,1.2912586E-1,4.0311497E-2,-6.789117E-2,-2.1988308E-2,5.259746E-2,1.3710696E-1,3.4005124E-2,-0E0,-1.13914005E-1,9.3853265E-2,-5.0359736E-3,6.9530435E-2,-2.6865749E-2,1.3025482E-1,-0E0,-7.2458364E-2,4.7905844E-2,-1.169003E-1,-0E0,-0E0,-9.503214E-2,-0E0,6.8704866E-2,-5.4079372E-2,9.6479146E-4,-0E0,-1.453024E-1,1.3677382E-1,2.4615715E-3,5.7533856E-2,-5.2744895E-2,7.665154E-2,-8.825473E-3,-1.12197936E-1,-0E0,1.0979092E-1,-1.2482684E-2,-0E0,-1.1204163E-1,-0E0,7.1523115E-2,-0E0,-1.3729696E-1,7.8764305E-2,-8.377946E-2,-0E0,-1.279364E-1,-0E0,-1.21669285E-1,-1.3135727E-1,-1.5568934E-1,-0E0,1.1054095E-1,-8.078586E-2,3.7272852E-2,-2.3267271E-2,-1.2864016E-1,6.35598E-2,-2.0041209E-2],"categories":[],"categories_nodes":[],"categories_segments":[],"categories_sizes":[],"default_left":[0,0,0,0,0,0,0,0,0,0,0,0,0,0,0,0,0,0,0,0,0,0,0,0,0,0,0,0,0,0,0,0,0,0,0,0,0,0,0,0,0,0,0,0,0,0,0,0,0,0,0,0,0,0,0,0,0,0,0,0,0,0,0,0,0,0,0,0,0,0,0,0,0,0,0,0,0,0,0,0,0,0,0,0,0,0,0,0,0,0,0,0,0,0,0,0,0,0,0,0,0,0,0,0,0,0,0,0,0,0,0,0,0,0,0,0,0,0,0,0,0,0,0,0,0,0,0],"id":3,"left_children":[1,3,5,7,9,11,13,15,17,19,21,23,25,27,29,31,33,35,37,39,41,43,45,47,49,51,53,55,57,59,61,63,65,67,69,71,73,75,77,79,81,83,85,87,89,91,93,95,97,99,101,103,105,107,109,111,113,115,117,119,121,123,125,-1,-1,-1,-1,-1,-1,-1,-1,-1,-1,-1,-1,-1,-1,-1,-1,-1,-1,-1,-1,-1,-1,-1,-1,-1,-1,-1,-1,-1,-1,-1,-1,-1,-1,-1,-1,-1,-1,-1,-1,-1,-1,-1,-1,-1,-1,-1,-1,-1,-1,-1,-1,-1,-1,-1,-1,-1,-1,-1,-1,-1,-1,-1,-1],"loss_changes":[3.8419387E4,6.058417E3,3.8000234E3,3.960957E2,6.4482806E2,1.4541318E3,1.0606211E3,1.0493945E2,5.0036768E2,4.6174042E2,6.554834E1,3.188999E2,3.6684308E2,2.3688086E2,6.2411975E2,3.4214844E1,5.340155E1,7.154016E1,1.4194377E2,1.5245563E2,1.128714E2,1.5412508E1,3.39093E1,1.1545557E2,4.6824226E1,1.4640373E2,7.607245E1,1.26422356E2,1.3348438E2,2.1485251E2,1.0132251E2,1.4810547E1,5.1292206E1,1.7126144E1,2.0934177E1,1.2920744E1,3.456836E1,6.629784E1,5.543289E1,7.0576836E1,2.740506E1,3.467384E1,6.831064E1,1.1260202E1,5.8822002E0,5.2007804E0,2.8452026E1,5.92583E1,1.9498362E1,1.6756168E1,2.303857E1,7.2754456E1,4.2371307E1,7.218108E0,5.2910156E1,9.335183E1,2.8456284E1,1.2232707E2,5.2585938E1,4.568022E1,6.62928E1,7.8659546E1,1.2102883E1,0E0,0E0,0E0,0E0,0E0,0E0,0E0,0E0,0E0,0E0,0E0,0E0,0E0,0E0,0E0,0E0,0E0,0E0,0E0,0E0,0E0,0E0,0E0,0E0,0E0,0E0,0E0,0E0,0E0,0E0,0E0,0E0,0E0,0E0,0E0,0E0,0E0,0E0,0E0,0E0,0E0,0E0,0E0,0E0,0E0,0E0,0E0,0E0,0E0,0E0,0E0,0E0,0E0,0E0,0E0,0E0,0E0,0E0,0E0,0E0,0E0,0E0,0E0,0E0],"parents":[2147483647,0,0,1,1,2,2,3,3,4,4,5,5,6,6,7,7,8,8,9,9,10,10,11,11,12,12,13,13,14,14,15,15,16,16,17,17,18,18,19,19,20,20,21,21,22,22,23,23,24,24,25,25,26,26,27,27,28,28,29,29,30,30,31,31,32,32,33,33,34,34,35,35,36,36,37,37,38,38,39,39,40,40,41,41,42,42,43,43,44,44,45,45,46,46,47,47,48,48,49,49,50,50,51,51,52,52,53,53,54,54,55,55,56,56,57,57,58,58,59,59,60,60,61,61,62,62],"right_children":[2,4,6,8,10,12,14,16,18,20,22,24,26,28,30,32,34,36,38,40,42,44,46,48,50,52,54,56,58,60,62,64,66,68,70,72,74,76,78,80,82,84,86,88,90,92,94,96,98,100,102,104,106,108,110,112,114,116,118,120,122,124,126,-1,-1,-1,-1,-1,-1,-1,-1,-1,-1,-1,-1,-1,-1,-1,-1,-1,-1,-1,-1,-1,-1,-1,-1,-1,-1,-1,-1,-1,-1,-1,-1,-1,-1,-1,-1,-1,-1,-1,-1,-1,-1,-1,-1,-1,-1,-1,-1,-1,-1,-1,-1,-1,-1,-1,-1,-1,-1,-1,-1,-1,-1,-1,-1],"split_conditions":[2.6938674E0,-1.1262844E0,-1.6112595E0,-1.6413565E0,-5.1651186E-1,2.7024662E-1,2.9334989E0,-4.1767426E0,1.7547505E0,1.071326E0,-2.1295333E-1,4.0072495E-1,4.4066896E0,-1.8162014E0,-9.6640056E-1,2.980042E0,2.343276E0,6.504877E0,2.5817056E0,9.380406E0,1.1735616E0,7.155015E0,1.3157823E0,6.007516E0,-2.0126576E0,1.0541964E1,-2.7114515E0,-8.961726E-1,2.9240227E0,1.6732138E0,1.1735019E1,6.9795866E0,-2.3685093E0,-2.156964E-1,1.0150139E1,-5.1752096E-1,-4.6811075E0,2.4870355E0,6.7416677E0,3.432827E0,8.510016E0,-7.5326867E0,3.5942183E0,5.646669E0,9.361665E-2,-1.8969288E-1,2.72186E0,-8.42071E-1,-1.5803814E-2,2.116673E-1,-6.080612E-1,-1.9171243E0,7.7887666E-1,-1.1219089E0,5.7157946E0,1.2557201E0,-7.433792E-1,-2.8850478E-1,7.7399445E-1,8.36566E0,-6.5049877E0,-7.6055307E0,4.777793E0,1.5585761E-1,-0E0,1.4092112E-1,4.3654628E-2,-0E0,1.2912586E-1,4.0311497E-2,-6.789117E-2,-2.1988308E-2,5.259746E-2,1.3710696E-1,3.4005124E-2,-0E0,-1.13914005E-1,9.3853265E-2,-5.0359736E-3,6.9530435E-2,-2.6865749E-2,1.3025482E-1,-0E0,-7.2458364E-2,4.7905844E-2,-1.169003E-1,-0E0,-0E0,-9.503214E-2,-0E0,6.8704866E-2,-5.4079372E-2,9.6479146E-4,-0E0,-1.453024E-1,1.3677382E-1,2.4615715E-3,5.7533856E-2,-5.2744895E-2,7.665154E-2,-8.825473E-3,-1.12197936E-1,-0E0,1.0979092E-1,-1.2482684E-2,-0E0,-1.1204163E-1,-0E0,7.1523115E-2,-0E0,-1.3729696E-1,7.8764305E-2,-8.377946E-2,-0E0,-1.279364E-1,-0E0,-1.21669285E-1,-1.3135727E-1,-1.5568934E-1,-0E0,1.1054095E-1,-8.078586E-2,3.7272852E-2,-2.3267271E-2,-1.2864016E-1,6.35598E-2,-2.0041209E-2],"split_indices":[4319,4614,4614,4614,4614,154,151,4870,72,72,4159,472,4159,503,4614,72,4159,7702,151,4395,4159,4507,1764,4159,4614,7388,4614,4614,6227,72,5097,4159,4614,4065,6034,8078,4870,4159,7174,6227,4826,7289,151,7384,6988,6930,6227,6265,3059,6674,370,4614,154,1991,7432,72,297,503,6111,4411,7289,4322,6611,0,0,0,0,0,0,0,0,0,0,0,0,0,0,0,0,0,0,0,0,0,0,0,0,0,0,0,0,0,0,0,0,0,0,0,0,0,0,0,0,0,0,0,0,0,0,0,0,0,0,0,0,0,0,0,0,0,0,0,0,0,0,0,0],"split_type":[0,0,0,0,0,0,0,0,0,0,0,0,0,0,0,0,0,0,0,0,0,0,0,0,0,0,0,0,0,0,0,0,0,0,0,0,0,0,0,0,0,0,0,0,0,0,0,0,0,0,0,0,0,0,0,0,0,0,0,0,0,0,0,0,0,0,0,0,0,0,0,0,0,0,0,0,0,0,0,0,0,0,0,0,0,0,0,0,0,0,0,0,0,0,0,0,0,0,0,0,0,0,0,0,0,0,0,0,0,0,0,0,0,0,0,0,0,0,0,0,0,0,0,0,0,0,0],"sum_hessian":[2.8483807E4,1.183147E4,1.6652336E4,1.0038628E4,1.7928411E3,1.9584253E3,1.4693911E4,8.39482E3,1.6438076E3,1.0560198E3,7.368213E2,9.8257153E2,9.7585376E2,1.33482295E4,1.3456815E3,8.198802E3,1.960192E2,1.2645632E3,3.7924435E2,5.5140576E2,5.04614E2,6.008746E1,6.767338E2,8.3234186E2,1.5022966E2,3.341051E2,6.4174866E2,3.0658698E2,1.3041643E4,4.830926E2,8.6258887E2,7.8481436E3,3.5065802E2,1.1193202E2,8.408718E1,7.109271E1,1.1934705E3,1.812938E2,1.9795056E2,3.108988E2,2.4050693E2,1.1200964E2,3.9260437E2,3.374598E1,2.6341484E1,3.1001421E1,6.457324E2,7.6727545E2,6.506643E1,6.1215656E1,8.9014E1,1.838858E2,1.5021928E2,3.068681E1,6.110619E2,1.4328937E2,1.632976E2,3.4075787E2,1.2700885E4,2.8390692E2,1.991857E2,7.9346545E2,6.912343E1,7.8411387E3,7.004899E0,2.3477612E2,1.1588189E2,1.2375055E1,9.955696E1,5.9934845E1,2.4152338E1,2.4762041E1,4.6330673E1,1.1329136E3,6.0556957E1,6.556015E1,1.15733635E2,1.2851584E2,6.943473E1,1.21157135E2,1.8974168E2,2.1139189E2,2.911503E1,3.1204678E1,8.080496E1,3.398105E2,5.279387E1,5.699841E0,2.8046137E1,1.0377792E1,1.5963691E1,1.7678738E1,1.3322683E1,1.4254199E1,6.314782E2,7.168528E2,5.0422684E1,2.5293547E1,3.977288E1,3.2094944E1,2.912071E1,6.8250175E1,2.0763826E1,1.2670212E2,5.7183693E1,6.407917E1,8.614011E1,1.6651096E1,1.4035714E1,3.0563139E1,5.804987E2,8.4876175E1,5.8413193E1,9.119563E0,1.5417805E2,1.0182768E2,2.389302E2,1.6123606E3,1.1088524E4,5.003571E1,2.338712E2,1.4085498E2,5.8330704E1,1.0572841E2,6.87737E2,2.5512972E1,4.361046E1],"tree_param":{"num_deleted":"0","num_feature":"9088","num_nodes":"127","size_leaf_vector":"0"}},{"base_weights":[-2.3232295E-1,1.0403702E0,-1.1491349E0,1.2897067E0,-6.606435E-1,-2.6965868E-1,-1.3764741E0,7.076814E-2,1.3725132E0,6.520652E-1,-1.1327602E0,6.303612E-1,-9.967663E-1,-3.7649325E-1,-1.4196559E0,8.358609E-1,-5.082695E-1,1.4038919E0,2.9583788E-1,1.1182282E0,-2.949331E-2,-0E0,-1.311521E0,9.940302E-1,-0E0,-3.3529416E-2,-1.1520839E0,2.623952E-1,-1.0222635E0,-9.4141585E-1,-1.4470159E0,1.118054E0,-0E0,1.716797E-1,-1.0545052E0,1.4399168E0,9.425907E-1,9.958078E-1,-2.2729094E-1,1.1951355E0,-0E0,8.5525686E-1,-5.4154444E-1,7.0705885E-1,-5.810548E-1,2.939419E-1,-1.3512671E0,1.1537462E0,-0E0,5.964758E-1,-5.034062E-1,4.5443934E-1,-5.9112734E-1,-1.13177635E-1,-1.2305375E0,7.2804254E-1,-7.155615E-1,-0E0,-1.23299E0,-4.9202256E-2,-1.238274E0,-1.0767651E0,-1.4636574E0,1.2007556E-1,-0E0,5.087465E-2,-3.9137118E-2,9.9094376E-2,-1.9675883E-2,-0E0,-1.2616211E-1,1.4548723E-1,1.0178163E-1,1.1595875E-1,1.2470966E-2,1.1655132E-1,-0E0,4.4078756E-2,-7.72131E-2,1.2345133E-1,-0E0,-0E0,1.13215104E-1,-0E0,-9.866671E-2,-0E0,1.1215415E-1,-1.0664102E-1,-0E0,-0E0,6.806047E-2,-1.3705127E-1,-0E0,-0E0,1.2276719E-1,7.508223E-2,-5.20516E-2,1.0964812E-1,3.3230965E-3,-8.463896E-2,1.5081023E-3,7.974684E-2,-5.6024965E-2,-9.0353E-2,-0E0,3.7481125E-2,-1.03097916E-1,-1.2882246E-1,-3.2156866E-2,1.11171804E-1,-0E0,-0E0,-1.03036545E-1,3.7873745E-2,-5.009175E-2,-0E0,-1.305041E-1,5.374653E-2,-4.9988016E-2,-0E0,-1.2788354E-1,-4.2070687E-2,-1.346824E-1,-0E0,-1.464893E-1],"categories":[],"categories_nodes":[],"categories_segments":[],"categories_sizes":[],"default_left":[0,0,0,0,0,0,0,0,0,0,0,0,0,0,0,0,0,0,0,0,0,0,0,0,0,0,0,0,0,0,0,0,0,0,0,0,0,0,0,0,0,0,0,0,0,0,0,0,0,0,0,0,0,0,0,0,0,0,0,0,0,0,0,0,0,0,0,0,0,0,0,0,0,0,0,0,0,0,0,0,0,0,0,0,0,0,0,0,0,0,0,0,0,0,0,0,0,0,0,0,0,0,0,0,0,0,0,0,0,0,0,0,0,0,0,0,0,0,0,0,0,0,0,0,0],"id":4,"left_children":[1,3,5,7,9,11,13,15,17,19,21,23,25,27,29,31,33,35,37,39,41,43,45,47,49,51,53,55,57,59,61,63,65,67,69,71,73,75,77,79,-1,81,83,85,87,89,91,93,95,97,99,101,103,105,107,109,111,113,115,117,119,121,123,-1,-1,-1,-1,-1,-1,-1,-1,-1,-1,-1,-1,-1,-1,-1,-1,-1,-1,-1,-1,-1,-1,-1,-1,-1,-1,-1,-1,-1,-1,-1,-1,-1,-1,-1,-1,-1,-1,-1,-1,-1,-1,-1,-1,-1,-1,-1,-1,-1,-1,-1,-1,-1,-1,-1,-1,-1,-1,-1,-1,-1,-1],"loss_changes":[3.2026484E4,4.8788145E3,3.1742383E3,9.9741016E2,9.119584E2,2.1547954E3,5.291543E2,2.8927628E2,2.9983984E2,1.3213524E2,2.0734314E2,3.3338507E2,2.6107703E2,2.2804915E2,1.3479492E2,7.421437E1,1.4256784E2,1.2734375E2,1.08318954E2,2.3615906E1,6.32254E1,6.235859E1,6.9814575E1,1.4039154E2,1.6152614E2,7.278064E1,1.1386841E2,1.1896716E2,5.2192993E1,1.6639478E2,4.5052734E1,1.9518951E1,1.2576151E1,5.3938133E1,4.291777E1,2.8308594E1,1.0781195E2,2.6701897E1,5.7637516E1,1.5391571E1,0E0,1.2591084E1,2.4218082E1,1.4847454E1,2.7440872E1,4.7186837E0,2.6355957E1,6.0691284E1,5.3395615E1,5.8460976E1,5.9818085E1,4.780863E1,3.0210114E1,5.9780903E1,5.954883E1,5.0513992E1,1.8585056E1,1.0411637E1,1.6977264E1,4.658103E1,2.3833496E1,7.425427E1,1.4779297E1,0E0,0E0,0E0,0E0,0E0,0E0,0E0,0E0,0E0,0E0,0E0,0E0,0E0,0E0,0E0,0E0,0E0,0E0,0E0,0E0,0E0,0E0,0E0,0E0,0E0,0E0,0E0,0E0,0E0,0E0,0E0,0E0,0E0,0E0,0E0,0E0,0E0,0E0,0E0,0E0,0E0,0E0,0E0,0E0,0E0,0E0,0E0,0E0,0E0,0E0,0E0,0E0,0E0,0E0,0E0,0E0,0E0,0E0,0E0,0E0,0E0,0E0],"parents":[2147483647,0,0,1,1,2,2,3,3,4,4,5,5,6,6,7,7,8,8,9,9,10,10,11,11,12,12,13,13,14,14,15,15,16,16,17,17,18,18,19,19,20,20,21,21,22,22,23,23,24,24,25,25,26,26,27,27,28,28,29,29,30,30,31,31,32,32,33,33,34,34,35,35,36,36,37,37,38,38,39,39,41,41,42,42,43,43,44,44,45,45,46,46,47,47,48,48,49,49,50,50,51,51,52,52,53,53,54,54,55,55,56,56,57,57,58,58,59,59,60,60,61,61,62,62],"right_children":[2,4,6,8,10,12,14,16,18,20,22,24,26,28,30,32,34,36,38,40,42,44,46,48,50,52,54,56,58,60,62,64,66,68,70,72,74,76,78,80,-1,82,84,86,88,90,92,94,96,98,100,102,104,106,108,110,112,114,116,118,120,122,124,-1,-1,-1,-1,-1,-1,-1,-1,-1,-1,-1,-1,-1,-1,-1,-1,-1,-1,-1,-1,-1,-1,-1,-1,-1,-1,-1,-1,-1,-1,-1,-1,-1,-1,-1,-1,-1,-1,-1,-1,-1,-1,-1,-1,-1,-1,-1,-1,-1,-1,-1,-1,-1,-1,-1,-1,-1,-1,-1,-1,-1,-1],"split_conditions":[-1.4215057E0,4.7576723E0,-8.453009E-1,2.6947417E0,-3.1466234E-1,-7.8359E-1,-6.212834E-1,1.294429E0,2.0498163E-1,1.8150022E0,7.052391E0,2.9967976E-1,-8.1040144E-2,2.7331378E0,6.393034E0,5.2858167E0,7.572191E0,-3.6009014E-1,-1.9966905E0,-9.977929E-1,-2.1259124E0,-5.1565566E0,-2.890069E0,2.44984E0,3.8107646E-1,2.1993813E-1,-2.1751554E0,-7.715345E-1,-1.1895144E0,-9.076125E-1,2.0551982E0,6.144661E-1,-2.2077534E0,-2.0937383E0,-2.2785475E0,3.0271614E-1,5.037472E0,6.0474367E0,4.4898376E0,6.011741E0,-0E0,-5.1305413E-1,8.969115E0,1.8523327E-1,2.4384956E0,-5.7317805E-1,4.525077E0,-3.895722E-1,2.692216E-1,4.3859177E0,1.6284707E-1,-3.534162E-2,-8.279264E-1,-1.461978E-1,2.778537E-1,3.6098915E-1,6.956304E0,3.332252E-1,-2.5948253E0,3.6692098E-2,6.3382854E0,-8.519643E-1,-2.858226E0,1.2007556E-1,-0E0,5.087465E-2,-3.9137118E-2,9.9094376E-2,-1.9675883E-2,-0E0,-1.2616211E-1,1.4548723E-1,1.0178163E-1,1.1595875E-1,1.2470966E-2,1.1655132E-1,-0E0,4.4078756E-2,-7.72131E-2,1.2345133E-1,-0E0,-0E0,1.13215104E-1,-0E0,-9.866671E-2,-0E0,1.1215415E-1,-1.0664102E-1,-0E0,-0E0,6.806047E-2,-1.3705127E-1,-0E0,-0E0,1.2276719E-1,7.508223E-2,-5.20516E-2,1.0964812E-1,3.3230965E-3,-8.463896E-2,1.5081023E-3,7.974684E-2,-5.6024965E-2,-9.0353E-2,-0E0,3.7481125E-2,-1.03097916E-1,-1.2882246E-1,-3.2156866E-2,1.11171804E-1,-0E0,-0E0,-1.03036545E-1,3.7873745E-2,-5.009175E-2,-0E0,-1.305041E-1,5.374653E-2,-4.9988016E-2,-0E0,-1.2788354E-1,-4.2070687E-2,-1.346824E-1,-0E0,-1.464893E-1],"split_indices":[4614,4159,375,5994,375,4614,4440,2822,503,461,7410,146,4440,4159,7410,4180,7410,4152,4614,6265,4614,6599,4614,4440,4440,146,375,4614,4614,4614,4159,449,4614,4614,4614,417,4180,6389,7352,4366,0,1044,5969,7144,5994,3603,2988,5430,461,7352,6974,4614,7257,4614,5587,146,7365,146,4378,5492,5969,4614,503,0,0,0,0,0,0,0,0,0,0,0,0,0,0,0,0,0,0,0,0,0,0,0,0,0,0,0,0,0,0,0,0,0,0,0,0,0,0,0,0,0,0,0,0,0,0,0,0,0,0,0,0,0,0,0,0,0,0,0,0,0,0],"split_type":[0,0,0,0,0,0,0,0,0,0,0,0,0,0,0,0,0,0,0,0,0,0,0,0,0,0,0,0,0,0,0,0,0,0,0,0,0,0,0,0,0,0,0,0,0,0,0,0,0,0,0,0,0,0,0,0,0,0,0,0,0,0,0,0,0,0,0,0,0,0,0,0,0,0,0,0,0,0,0,0,0,0,0,0,0,0,0,0,0,0,0,0,0,0,0,0,0,0,0,0,0,0,0,0,0,0,0,0,0,0,0,0,0,0,0,0,0,0,0,0,0,0,0,0,0],"sum_hessian":[2.7446525E4,1.1488116E4,1.5958409E4,1.0024603E4,1.4635144E3,3.2869282E3,1.267148E4,6.453776E2,9.379225E3,3.8151154E2,1.0820028E3,1.4626759E3,1.8242523E3,5.34163E2,1.2137317E4,2.8544272E2,3.599349E2,9.104562E3,2.7466287E2,2.3523021E2,1.4628133E2,1.543368E2,9.27666E2,9.2554565E2,5.371303E2,2.6226465E2,1.5619877E3,2.607579E2,2.7340512E2,6.76767E2,1.1460551E4,2.188623E2,6.658042E1,1.5221747E2,2.0771744E2,8.424748E3,6.7981366E2,1.25612755E2,1.4905014E2,2.224513E2,1.2778907E1,4.644125E1,9.984008E1,6.2639797E1,9.1697014E1,1.6317501E1,9.113485E2,7.924732E2,1.3307242E2,2.4761102E2,2.8951926E2,1.3031071E2,1.3195393E2,1.1863928E2,1.4433484E3,1.8359254E2,7.716537E1,5.116748E1,2.2223764E2,1.7739757E2,4.9936948E2,5.190853E2,1.0941466E4,2.0327687E2,1.5585427E1,2.211738E1,4.446304E1,5.5586758E1,9.663072E1,3.566879E1,1.7204865E2,8.1133477E3,3.114004E2,5.27572E2,1.5224165E2,1.1132558E2,1.4287177E1,5.871696E1,9.033317E1,2.185794E2,3.8718982E0,1.0158366E1,3.6282883E1,4.495612E1,5.488396E1,2.6000193E1,3.6639603E1,5.1282547E1,4.041447E1,3.168614E0,1.3148887E1,8.999618E2,1.1386739E1,5.2309425E1,7.4016376E2,5.894155E1,7.4130875E1,1.21713875E2,1.25897156E2,1.858209E2,1.0369836E2,1.0476885E2,2.5541855E1,9.342899E1,3.852495E1,7.0381485E1,4.8257797E1,1.3468296E3,9.651885E1,1.19551636E2,6.404091E1,2.249501E1,5.4670357E1,2.2950716E1,2.8216764E1,1.3904415E1,2.0833322E2,6.742256E1,1.09975006E2,1.6608007E1,4.8276144E2,1.622394E2,3.5684595E2,1.15653E1,1.09299E4],"tree_param":{"num_deleted":"0","num_feature":"9088","num_nodes":"125","size_leaf_vector":"0"}},{"base_weights":[-2.1712309E-1,9.3161476E-1,-1.1396564E0,1.1747824E0,-2.4832492E-1,-1.04839616E-1,-1.2938104E0,1.2770963E0,2.9199663E-1,-7.3594385E-1,6.917039E-1,6.552873E-1,-6.866861E-1,-4.786501E-1,-1.3298068E0,7.208293E-1,1.3434548E0,8.4541464E-1,-1.775095E-1,-9.707512E-1,1.0351213E-1,1.001925E0,-2.3483516E-1,1.0289865E0,-1.6421923E-1,1.7128855E-1,-9.488655E-1,2.8998783E-1,-7.8176504E-1,-8.3711565E-1,-1.3648504E0,1.1594551E0,2.3040459E-1,1.3937109E0,1.0857999E0,1.0908816E0,2.251847E-1,-7.483365E-1,1.9166034E-1,-5.3338486E-1,-1.187016E0,-4.1795927E-1,5.46276E-1,-0E0,1.1630279E0,5.368132E-1,-7.105203E-1,-0E0,1.1582872E0,-7.1395606E-1,4.5351344E-1,6.055256E-1,-5.958047E-1,-2.4931598E-2,-1.1204445E0,8.8149166E-1,-5.530557E-2,-0E0,-9.767924E-1,-1.8566124E-1,-1.0867522E0,-1.3832905E0,-9.2426556E-1,1.2017502E-1,-0E0,7.797528E-2,-1.2662344E-2,1.3966662E-1,-0E0,1.267097E-1,3.5304777E-2,1.7418813E-2,1.1897166E-1,6.901567E-2,-1.1452678E-2,-4.920471E-3,-1.04485445E-1,5.438127E-2,-3.7816953E-2,6.8928767E-4,-7.7657215E-2,-0E0,-1.2265401E-1,1.7210523E-2,-7.160048E-2,-0E0,8.335125E-2,-4.2291496E-2,5.409375E-2,1.2257405E-1,-0E0,8.1091955E-2,-0E0,-0E0,-9.9732615E-2,-3.433758E-2,4.116949E-2,2.150509E-2,1.2765871E-1,-0E0,-1.0186636E-1,8.107965E-2,-1.1910148E-2,8.537959E-2,-0E0,-8.5156254E-2,-0E0,-6.028692E-2,2.6765281E-2,-0E0,-1.1731376E-1,-0E0,1.1440956E-1,1.4193381E-2,-7.115265E-2,-3.5494667E-2,4.0358346E-2,-0E0,-1.0701032E-1,-6.045415E-2,3.979203E-2,-1.196299E-1,-1.4239244E-2,-9.0256E-2,-1.3942719E-1,-0E0,-1.08135976E-1],"categories":[],"categories_nodes":[],"categories_segments":[],"categories_sizes":[],"default_left":[0,0,0,0,0,0,0,0,0,0,0,0,0,0,0,0,0,0,0,0,0,0,0,0,0,0,0,0,0,0,0,0,0,0,0,0,0,0,0,0,0,0,0,0,0,0,0,0,0,0,0,0,0,0,0,0,0,0,0,0,0,0,0,0,0,0,0,0,0,0,0,0,0,0,0,0,0,0,0,0,0,0,0,0,0,0,0,0,0,0,0,0,0,0,0,0,0,0,0,0,0,0,0,0,0,0,0,0,0,0,0,0,0,0,0,0,0,0,0,0,0,0,0,0,0,0,0],"id":5,"left_children":[1,3,5,7,9,11,13,15,17,19,21,23,25,27,29,31,33,35,37,39,41,43,45,47,49,51,53,55,57,59,61,63,65,67,69,71,73,75,77,79,81,83,85,87,89,91,93,95,97,99,101,103,105,107,109,111,113,115,117,119,121,123,125,-1,-1,-1,-1,-1,-1,-1,-1,-1,-1,-1,-1,-1,-1,-1,-1,-1,-1,-1,-1,-1,-1,-1,-1,-1,-1,-1,-1,-1,-1,-1,-1,-1,-1,-1,-1,-1,-1,-1,-1,-1,-1,-1,-1,-1,-1,-1,-1,-1,-1,-1,-1,-1,-1,-1,-1,-1,-1,-1,-1,-1,-1,-1,-1],"loss_changes":[2.7937158E4,3.3765742E3,2.318877E3,8.637803E2,9.164968E2,8.42721E2,3.550879E2,3.009961E2,2.7214944E2,2.6943396E2,2.0188269E2,2.5929492E2,2.5215112E2,1.330451E2,1.8799023E2,1.8940341E2,7.567676E1,5.969626E1,1.2001473E2,8.139075E1,6.593827E1,7.349817E1,6.104026E1,7.635254E1,8.6860535E1,8.188155E1,1.2186493E2,3.8136955E1,6.419324E1,1.2180353E2,6.895117E1,1.5942505E1,9.620276E1,1.8879883E1,1.5662146E2,1.636499E1,2.904926E1,3.547512E1,6.573059E1,5.507457E1,3.0500122E1,2.6243092E1,2.9609795E1,1.8914284E1,3.499646E1,9.69774E0,2.3249043E1,8.956511E0,4.16438E1,3.2831696E1,2.9079325E1,3.2783684E1,2.01763E1,2.7201876E1,5.1783447E1,1.8888897E1,1.6288765E1,1.1309472E1,3.604251E1,6.086194E1,4.7323975E1,3.426367E1,6.2582916E1,0E0,0E0,0E0,0E0,0E0,0E0,0E0,0E0,0E0,0E0,0E0,0E0,0E0,0E0,0E0,0E0,0E0,0E0,0E0,0E0,0E0,0E0,0E0,0E0,0E0,0E0,0E0,0E0,0E0,0E0,0E0,0E0,0E0,0E0,0E0,0E0,0E0,0E0,0E0,0E0,0E0,0E0,0E0,0E0,0E0,0E0,0E0,0E0,0E0,0E0,0E0,0E0,0E0,0E0,0E0,0E0,0E0,0E0,0E0,0E0,0E0,0E0,0E0,0E0],"parents":[2147483647,0,0,1,1,2,2,3,3,4,4,5,5,6,6,7,7,8,8,9,9,10,10,11,11,12,12,13,13,14,14,15,15,16,16,17,17,18,18,19,19,20,20,21,21,22,22,23,23,24,24,25,25,26,26,27,27,28,28,29,29,30,30,31,31,32,32,33,33,34,34,35,35,36,36,37,37,38,38,39,39,40,40,41,41,42,42,43,43,44,44,45,45,46,46,47,47,48,48,49,49,50,50,51,51,52,52,53,53,54,54,55,55,56,56,57,57,58,58,59,59,60,60,61,61,62,62],"right_children":[2,4,6,8,10,12,14,16,18,20,22,24,26,28,30,32,34,36,38,40,42,44,46,48,50,52,54,56,58,60,62,64,66,68,70,72,74,76,78,80,82,84,86,88,90,92,94,96,98,100,102,104,106,108,110,112,114,116,118,120,122,124,126,-1,-1,-1,-1,-1,-1,-1,-1,-1,-1,-1,-1,-1,-1,-1,-1,-1,-1,-1,-1,-1,-1,-1,-1,-1,-1,-1,-1,-1,-1,-1,-1,-1,-1,-1,-1,-1,-1,-1,-1,-1,-1,-1,-1,-1,-1,-1,-1,-1,-1,-1,-1,-1,-1,-1,-1,-1,-1,-1,-1,-1,-1,-1,-1],"split_conditions":[3.047205E0,1.0739692E0,3.7895024E-1,-1.6006032E0,8.274656E0,-1.8564086E0,-1.588521E0,-6.652844E-2,-2.4510479E-1,7.055948E-1,4.674737E-1,7.9057817E0,6.713615E0,4.5297053E-1,-5.6243443E-1,-1.9784844E-1,4.7472674E-1,-1.7718183E0,2.0305246E-1,1.86947E-1,1.0207714E1,2.7321947E0,4.403088E-1,1.3241865E1,1.0784313E1,-1.4198745E0,-1.0862849E0,-3.174307E-2,2.646496E0,7.198143E0,2.8841734E-2,-3.52187E-1,1.7145923E0,5.497571E-1,1.0795603E0,6.7489996E0,-9.4885004E-1,1.1814376E0,2.6009905E-1,-2.519347E0,4.1300917E0,-2.4236436E0,-3.371175E-1,-7.045165E-2,3.954015E0,6.8995237E0,1.04923935E1,6.433162E-1,-8.210343E-2,7.1163446E-1,3.7637377E0,5.3533916E0,3.2664424E-1,5.309911E-1,-1.36268E0,-6.672722E0,3.0120153E0,4.5563698E-1,4.482701E0,9.333349E0,1.4407456E0,6.111543E0,-2.3890357E0,1.2017502E-1,-0E0,7.797528E-2,-1.2662344E-2,1.3966662E-1,-0E0,1.267097E-1,3.5304777E-2,1.7418813E-2,1.1897166E-1,6.901567E-2,-1.1452678E-2,-4.920471E-3,-1.04485445E-1,5.438127E-2,-3.7816953E-2,6.8928767E-4,-7.7657215E-2,-0E0,-1.2265401E-1,1.7210523E-2,-7.160048E-2,-0E0,8.335125E-2,-4.2291496E-2,5.409375E-2,1.2257405E-1,-0E0,8.1091955E-2,-0E0,-0E0,-9.9732615E-2,-3.433758E-2,4.116949E-2,2.150509E-2,1.2765871E-1,-0E0,-1.0186636E-1,8.107965E-2,-1.1910148E-2,8.537959E-2,-0E0,-8.5156254E-2,-0E0,-6.028692E-2,2.6765281E-2,-0E0,-1.1731376E-1,-0E0,1.1440956E-1,1.4193381E-2,-7.115265E-2,-3.5494667E-2,4.0358346E-2,-0E0,-1.0701032E-1,-6.045415E-2,3.979203E-2,-1.196299E-1,-1.4239244E-2,-9.0256E-2,-1.3942719E-1,-0E0,-1.08135976E-1],"split_indices":[4319,5029,5029,4444,4254,4444,503,164,5029,5078,146,7410,7410,5358,6111,5029,146,4638,4794,6677,5097,4914,4319,4283,5097,4638,503,3771,3096,7410,377,4638,4159,8166,4319,7458,5029,4319,5212,4638,7669,4378,5421,6714,4159,6489,7443,5078,4794,4440,3096,4159,6960,4794,5029,7170,4177,4794,6384,4411,4794,7410,5810,0,0,0,0,0,0,0,0,0,0,0,0,0,0,0,0,0,0,0,0,0,0,0,0,0,0,0,0,0,0,0,0,0,0,0,0,0,0,0,0,0,0,0,0,0,0,0,0,0,0,0,0,0,0,0,0,0,0,0,0,0,0,0,0],"split_type":[0,0,0,0,0,0,0,0,0,0,0,0,0,0,0,0,0,0,0,0,0,0,0,0,0,0,0,0,0,0,0,0,0,0,0,0,0,0,0,0,0,0,0,0,0,0,0,0,0,0,0,0,0,0,0,0,0,0,0,0,0,0,0,0,0,0,0,0,0,0,0,0,0,0,0,0,0,0,0,0,0,0,0,0,0,0,0,0,0,0,0,0,0,0,0,0,0,0,0,0,0,0,0,0,0,0,0,0,0,0,0,0,0,0,0,0,0,0,0,0,0,0,0,0,0,0,0],"sum_hessian":[2.635989E4,1.1735729E4,1.4624161E4,9.737461E3,1.9982677E3,1.9045021E3,1.2719659E4,8.715924E3,1.02153784E3,1.32277E3,6.754977E2,8.182878E2,1.0862144E3,5.497392E2,1.216992E4,9.451186E2,7.7708047E3,4.7860898E2,5.4292883E2,1.0429418E3,2.7982828E2,5.1413965E2,1.6135802E2,5.7037213E2,2.4791563E2,2.4531638E2,8.4089795E2,1.4614886E2,4.035903E2,8.2724115E2,1.1342679E4,4.8807098E2,4.570476E2,6.469638E3,1.3011667E3,3.3129443E2,1.4731454E2,2.2382527E2,3.1910358E2,3.6048853E2,6.824532E2,1.1812503E2,1.6170325E2,7.826092E1,4.3587875E2,5.3513756E1,1.0784426E2,6.3345455E1,5.0702667E2,1.3973468E2,1.0818097E2,1.6498102E2,8.033536E1,1.408474E2,7.0005054E2,6.4486336E1,8.166253E1,7.782971E1,3.257606E2,2.4032332E2,5.869178E2,1.0865022E4,4.7765594E2,4.6535266E2,2.2718306E1,1.910206E2,2.66027E2,6.4519663E3,1.7671883E1,1.0320881E3,2.6907858E2,4.2116783E1,2.8917764E2,7.457516E1,7.273938E1,7.6736595E1,1.4708868E2,2.0807056E2,1.1103303E2,9.916186E1,2.6132666E2,2.3006622E1,6.594466E2,2.8396515E1,8.9728516E1,4.9683083E1,1.1202016E2,3.545347E1,4.280745E1,4.15701E2,2.0177744E1,3.814193E1,1.5371824E1,2.9783304E1,7.806095E1,3.5064327E1,2.8281126E1,6.595594E1,4.4107074E2,3.9504574E1,1.002301E2,7.734421E1,3.0836756E1,1.2790638E2,3.707463E1,6.709839E1,1.3236971E1,5.879084E1,8.205655E1,2.3857332E1,6.761932E2,1.1815785E1,5.267055E1,5.1133125E1,3.0529408E1,3.7847496E1,3.9982216E1,2.2876244E1,3.0288437E2,1.498772E2,9.044613E1,5.163991E2,7.051869E1,2.6316968E2,1.0601853E4,7.520885E1,4.0244708E2],"tree_param":{"num_deleted":"0","num_feature":"9088","num_nodes":"127","size_leaf_vector":"0"}},{"base_weights":[-2.0790099E-1,9.593304E-1,-1.0199412E0,1.19867E0,-7.343908E-1,1.00159936E-1,-1.1822726E0,1.2658165E0,4.1398075E-1,1.2886538E-1,-1.089358E0,5.9811467E-1,-6.941723E-1,-4.2159352E-1,-1.2728066E0,6.863973E-1,1.3039049E0,9.9994457E-1,-3.706092E-1,-4.5593134E-1,7.6146567E-1,-1.1819667E0,-0E0,9.4250315E-1,-1.00571945E-1,-0E0,-9.815371E-1,-9.498057E-1,1.0895178E-1,-7.899072E-1,-1.3112634E0,9.855402E-1,-0E0,1.3589156E0,1.0935901E0,2.2364725E-1,1.1945989E0,-8.2902586E-1,1.9914421E-1,-9.333106E-1,-0E0,-0E0,1.0114279E0,-0E0,-1.2211655E0,-5.942162E-1,4.5257196E-1,1.0911005E0,1.9734943E-1,3.2566145E-1,-6.1627614E-1,4.4775334E-1,-5.888445E-1,-1.1079726E0,-0E0,-4.018943E-1,-1.17321E0,4.0680793E-1,-8.266228E-1,3.3812013E-2,-1.1219984E0,-1.3388247E0,-9.966413E-1,1.0434704E-1,-0E0,7.958067E-2,-5.4787185E-2,1.3598195E-1,-0E0,1.2267158E-1,3.9039325E-2,8.390153E-2,-0E0,1.2464775E-1,-0E0,1.8922077E-2,-1.0099899E-1,6.879463E-2,-8.153867E-3,-0E0,-1.0426255E-1,-3.6339916E-2,5.6955405E-2,-3.923008E-2,2.4955964E-2,1.1332426E-1,-0E0,2.9218644E-2,-0E0,-1.2557687E-1,-0E0,-0E0,-7.996114E-2,8.913391E-2,-0E0,1.1384479E-1,-0E0,6.83726E-2,-8.657708E-3,5.8579654E-2,-2.6075264E-2,-0E0,-9.600392E-2,8.107352E-2,-8.023063E-3,-0E0,-9.139564E-2,-0E0,-1.1812251E-1,2.9961556E-2,-3.0705115E-2,1.0588609E-2,-8.659097E-2,-0E0,-1.2291708E-1,9.2754826E-2,-1.6916258E-3,-0E0,-9.663879E-2,5.6985237E-2,-5.635311E-2,-9.346499E-3,-1.1902207E-1,-5.8413316E-2,-1.34451E-1,-2.7581055E-3,-1.1045744E-1],"categories":[],"categories_nodes":[],"categories_segments":[],"categories_sizes":[],"default_left":[0,0,0,0,0,0,0,0,0,0,0,0,0,0,0,0,0,0,0,0,0,0,0,0,0,0,0,0,0,0,0,0,0,0,0,0,0,0,0,0,0,0,0,0,0,0,0,0,0,0,0,0,0,0,0,0,0,0,0,0,0,0,0,0,0,0,0,0,0,0,0,0,0,0,0,0,0,0,0,0,0,0,0,0,0,0,0,0,0,0,0,0,0,0,0,0,0,0,0,0,0,0,0,0,0,0,0,0,0,0,0,0,0,0,0,0,0,0,0,0,0,0,0,0,0,0,0],"id":6,"left_children":[1,3,5,7,9,11,13,15,17,19,21,23,25,27,29,31,33,35,37,39,41,43,45,47,49,51,53,55,57,59,61,63,65,67,69,71,73,75,77,79,81,83,85,87,89,91,93,95,97,99,101,103,105,107,109,111,113,115,117,119,121,123,125,-1,-1,-1,-1,-1,-1,-1,-1,-1,-1,-1,-1,-1,-1,-1,-1,-1,-1,-1,-1,-1,-1,-1,-1,-1,-1,-1,-1,-1,-1,-1,-1,-1,-1,-1,-1,-1,-1,-1,-1,-1,-1,-1,-1,-1,-1,-1,-1,-1,-1,-1,-1,-1,-1,-1,-1,-1,-1,-1,-1,-1,-1,-1,-1],"loss_changes":[2.3908941E4,4.197798E3,2.7164912E3,4.609463E2,4.0049188E2,7.4106256E2,8.785957E2,1.6410059E2,3.4042212E2,1.3758658E2,1.0137073E2,2.8774768E2,1.373165E2,3.9936893E2,1.9448242E2,1.1863931E2,6.569336E1,4.9759827E1,8.557601E1,4.4449467E1,3.9729103E1,4.7317993E1,1.6351652E1,7.425452E1,8.508497E1,5.748269E1,5.605844E1,7.092853E1,1.8717737E2,2.5045874E2,6.958984E1,2.1147003E1,6.3607864E1,5.203125E0,1.3895813E2,1.7411564E1,1.7557373E1,4.1009438E1,2.3309639E1,1.3007904E1,1.9093025E1,4.6681566E0,1.8506058E1,1.1787454E0,3.6658813E1,4.819049E0,1.6060863E1,3.8216064E1,2.561263E1,3.2872936E1,4.4452393E1,2.9724398E1,2.26535E1,2.7367676E1,5.7613297E0,5.9052494E1,2.2169312E1,1.2583095E2,1.891848E1,7.7929794E1,3.1555725E1,2.2853516E1,8.220184E1,0E0,0E0,0E0,0E0,0E0,0E0,0E0,0E0,0E0,0E0,0E0,0E0,0E0,0E0,0E0,0E0,0E0,0E0,0E0,0E0,0E0,0E0,0E0,0E0,0E0,0E0,0E0,0E0,0E0,0E0,0E0,0E0,0E0,0E0,0E0,0E0,0E0,0E0,0E0,0E0,0E0,0E0,0E0,0E0,0E0,0E0,0E0,0E0,0E0,0E0,0E0,0E0,0E0,0E0,0E0,0E0,0E0,0E0,0E0,0E0,0E0,0E0,0E0,0E0],"parents":[2147483647,0,0,1,1,2,2,3,3,4,4,5,5,6,6,7,7,8,8,9,9,10,10,11,11,12,12,13,13,14,14,15,15,16,16,17,17,18,18,19,19,20,20,21,21,22,22,23,23,24,24,25,25,26,26,27,27,28,28,29,29,30,30,31,31,32,32,33,33,34,34,35,35,36,36,37,37,38,38,39,39,40,40,41,41,42,42,43,43,44,44,45,45,46,46,47,47,48,48,49,49,50,50,51,51,52,52,53,53,54,54,55,55,56,56,57,57,58,58,59,59,60,60,61,61,62,62],"right_children":[2,4,6,8,10,12,14,16,18,20,22,24,26,28,30,32,34,36,38,40,42,44,46,48,50,52,54,56,58,60,62,64,66,68,70,72,74,76,78,80,82,84,86,88,90,92,94,96,98,100,102,104,106,108,110,112,114,116,118,120,122,124,126,-1,-1,-1,-1,-1,-1,-1,-1,-1,-1,-1,-1,-1,-1,-1,-1,-1,-1,-1,-1,-1,-1,-1,-1,-1,-1,-1,-1,-1,-1,-1,-1,-1,-1,-1,-1,-1,-1,-1,-1,-1,-1,-1,-1,-1,-1,-1,-1,-1,-1,-1,-1,-1,-1,-1,-1,-1,-1,-1,-1,-1,-1,-1,-1],"split_conditions":[-1.4496186E0,4.4706783E0,2.0821097E0,2.8350055E0,7.4594254E0,-8.063325E-1,-5.6243443E-1,-3.209536E-1,-2.225384E0,1.694972E0,-1.0390897E0,1.417519E0,1.1735616E0,2.81744E0,-3.986404E-1,-1.3518348E0,-1.8691237E0,1.6870642E-1,1.1500655E0,-5.703658E-3,-1.5488553E-1,-2.7114515E0,1.0190172E1,1.4454776E-1,-2.2233634E0,-6.64891E-1,4.2612996E0,-9.1954845E-1,-3.084858E-1,-8.7393206E-1,5.6234753E-1,-4.6536236E0,-2.1259124E0,2.873585E0,1.9516196E0,-2.9485798E0,5.018647E-1,-2.0446604E-1,3.9078372E0,1.882858E-1,2.440435E0,5.3385987E0,-2.6091844E-2,5.4518094E0,3.0466807E0,-1.5208478E0,5.2394085E0,1.916904E0,5.4670525E0,8.242468E0,1.5548272E0,5.3736563E0,-4.8010923E-2,-8.308967E0,3.2884202E0,4.811386E0,6.176441E0,-7.578679E0,1.6180778E0,3.0120153E0,3.9449463E0,9.025185E-1,-8.360783E0,1.0434704E-1,-0E0,7.958067E-2,-5.4787185E-2,1.3598195E-1,-0E0,1.2267158E-1,3.9039325E-2,8.390153E-2,-0E0,1.2464775E-1,-0E0,1.8922077E-2,-1.0099899E-1,6.879463E-2,-8.153867E-3,-0E0,-1.0426255E-1,-3.6339916E-2,5.6955405E-2,-3.923008E-2,2.4955964E-2,1.1332426E-1,-0E0,2.9218644E-2,-0E0,-1.2557687E-1,-0E0,-0E0,-7.996114E-2,8.913391E-2,-0E0,1.1384479E-1,-0E0,6.83726E-2,-8.657708E-3,5.8579654E-2,-2.6075264E-2,-0E0,-9.600392E-2,8.107352E-2,-8.023063E-3,-0E0,-9.139564E-2,-0E0,-1.1812251E-1,2.9961556E-2,-3.0705115E-2,1.0588609E-2,-8.659097E-2,-0E0,-1.2291708E-1,9.2754826E-2,-1.6916258E-3,-0E0,-9.663879E-2,5.6985237E-2,-5.635311E-2,-9.346499E-3,-1.1902207E-1,-5.8413316E-2,-1.34451E-1,-2.7581055E-3,-1.1045744E-1],"split_indices":[4614,4319,4319,72,7410,4614,6111,164,4614,6452,264,72,4159,3086,3494,13,4614,164,1164,5078,367,4614,1808,4102,4657,4102,9006,4614,4614,4614,5078,4599,4614,5762,72,4614,5129,7121,1540,5358,3086,5721,7103,7352,6452,3494,7352,3494,7499,4876,4159,7565,5204,4599,3511,7352,7410,4599,1764,4177,7565,1764,4599,0,0,0,0,0,0,0,0,0,0,0,0,0,0,0,0,0,0,0,0,0,0,0,0,0,0,0,0,0,0,0,0,0,0,0,0,0,0,0,0,0,0,0,0,0,0,0,0,0,0,0,0,0,0,0,0,0,0,0,0,0,0,0,0],"split_type":[0,0,0,0,0,0,0,0,0,0,0,0,0,0,0,0,0,0,0,0,0,0,0,0,0,0,0,0,0,0,0,0,0,0,0,0,0,0,0,0,0,0,0,0,0,0,0,0,0,0,0,0,0,0,0,0,0,0,0,0,0,0,0,0,0,0,0,0,0,0,0,0,0,0,0,0,0,0,0,0,0,0,0,0,0,0,0,0,0,0,0,0,0,0,0,0,0,0,0,0,0,0,0,0,0,0,0,0,0,0,0,0,0,0,0,0,0,0,0,0,0,0,0,0,0,0,0],"sum_hessian":[2.5223848E4,1.0343585E4,1.4880262E4,9.068105E3,1.2754799E3,1.8757627E3,1.3004499E4,8.341511E3,7.265949E2,3.6346054E2,9.120193E2,1.1607317E3,7.1503107E2,1.3949521E3,1.1609547E4,5.3082263E2,7.810688E3,4.232286E2,3.0336633E2,1.8066655E2,1.8279399E2,8.4724805E2,6.477127E1,7.870606E2,3.7367108E2,2.1491016E2,5.0012088E2,7.084185E2,6.865336E2,8.756929E2,1.07338545E4,3.795797E2,1.5124294E2,6.1531514E3,1.6575364E3,9.519024E1,3.2803836E2,1.7780917E2,1.2555715E2,9.40671E1,8.659944E1,4.0393066E1,1.4240092E2,2.1795347E1,8.254527E2,2.04309E1,4.4340366E1,6.449744E2,1.4208614E2,1.9398605E2,1.7968503E2,1.168476E2,9.806256E1,4.3813504E2,6.1985867E1,2.1823268E2,4.9018585E2,5.2889575E2,1.5763788E2,2.4298077E2,6.327121E2,9.839766E3,8.9408844E2,3.580144E2,2.1565292E1,5.4381466E1,9.686147E1,6.1477886E3,5.362948E0,1.3816704E3,2.75866E2,3.1404942E1,6.3785297E1,3.1259274E2,1.5445608E1,1.849237E1,1.593168E2,5.8741913E1,6.681524E1,6.744862E0,8.732224E1,4.7026638E1,3.9572803E1,2.325759E1,1.7135475E1,1.2782213E2,1.4578806E1,1.3707019E1,8.088329E0,8.038293E2,2.1623438E1,1.6557491E0,1.877515E1,3.1572329E1,1.2768039E1,6.219198E2,2.3054668E1,6.530162E1,7.678451E1,1.4618904E2,4.7797005E1,5.7470703E1,1.22214325E2,8.043561E1,3.641199E1,3.0295849E1,6.776671E1,3.3053818E1,4.050812E2,2.2418566E1,3.95673E1,9.394888E1,1.242838E2,2.8953243E1,4.612326E2,2.4781827E2,2.810775E2,2.2069334E1,1.3556854E2,1.3688716E2,1.0609362E2,4.8489586E1,5.842225E2,8.679906E1,9.752967E3,9.890063E1,7.951878E2],"tree_param":{"num_deleted":"0","num_feature":"9088","num_nodes":"127","size_leaf_vector":"0"}},{"base_weights":[-1.9652174E-1,8.7745076E-1,-9.962863E-1,1.1242801E0,-7.1065426E-1,-1.6627038E-1,-1.1987642E0,-0E0,1.1897808E0,3.7945315E-1,-9.765889E-1,4.7888207E-1,-9.700982E-1,-2.8622892E-1,-1.2412021E0,5.8702904E-1,-6.5809715E-1,1.2440418E0,7.1750736E-1,7.248977E-1,-2.884665E-1,6.1183884E-3,-1.089303E0,8.587986E-1,-4.8229776E-2,-0E0,-1.0662397E0,4.7414777E-1,-7.275723E-1,-2.9654497E-1,-1.2585111E0,9.114849E-1,-0E0,-0E0,-9.765464E-1,1.3042458E0,1.0386573E0,-0E0,1.0050523E0,-0E0,1.0191487E0,-0E0,-6.6913223E-1,-5.3872347E-1,6.151717E-1,-1.468535E-1,-1.1825168E0,9.915203E-1,1.18350126E-1,3.6553E-1,-5.4691875E-1,4.5722613E-1,-7.5077933E-1,-0E0,-1.1108003E0,8.114086E-1,-5.0927382E-2,-0E0,-9.5546055E-1,-0E0,-9.703725E-1,-1.2860173E0,-8.6807615E-1,-0E0,1.01706855E-1,-4.8423287E-2,3.2358795E-2,-4.1472312E-2,3.9642602E-2,-1.13288954E-1,-0E0,1.3054782E-1,-0E0,1.15964495E-1,3.688982E-2,6.400126E-2,-4.165253E-2,1.15186945E-1,2.5833635E-2,-1.4727226E-2,4.794691E-2,-0E0,1.156041E-1,-0E0,5.01102E-2,-0E0,-9.136398E-2,-0E0,-8.4371984E-2,8.770744E-2,-0E0,2.6116222E-2,-6.9132E-2,-0E0,-1.20135106E-1,-2.3784151E-2,1.04703836E-1,-3.357693E-2,4.7880884E-2,7.637437E-2,-8.82192E-3,-7.738724E-2,-0E0,-1.9018468E-2,8.063631E-2,-0E0,-9.1997914E-2,1.9157281E-2,-3.5887748E-2,-1.1310511E-1,-0E0,1.0195798E-1,-0E0,5.8097984E-3,-5.9002947E-2,5.5549294E-2,-4.4312116E-2,-1.07708946E-1,-0E0,7.110726E-2,-3.9784316E-2,-1.0847055E-1,-0E0,-1.2889376E-1,-1.8734279E-3,-7.828361E-3,-1.0472063E-1],"categories":[],"categories_nodes":[],"categories_segments":[],"categories_sizes":[],"default_left":[0,0,0,0,0,0,0,0,0,0,0,0,0,0,0,0,0,0,0,0,0,0,0,0,0,0,0,0,0,0,0,0,0,0,0,0,0,0,0,0,0,0,0,0,0,0,0,0,0,0,0,0,0,0,0,0,0,0,0,0,0,0,0,0,0,0,0,0,0,0,0,0,0,0,0,0,0,0,0,0,0,0,0,0,0,0,0,0,0,0,0,0,0,0,0,0,0,0,0,0,0,0,0,0,0,0,0,0,0,0,0,0,0,0,0,0,0,0,0,0,0,0,0,0,0,0,0],"id":7,"left_children":[1,3,5,7,9,11,13,15,17,19,21,23,25,27,29,31,33,35,37,39,41,43,45,47,49,51,53,55,57,59,61,63,65,67,69,71,73,75,77,79,81,83,85,87,89,91,93,95,97,99,101,103,105,107,109,111,113,115,117,119,121,123,125,-1,-1,-1,-1,-1,-1,-1,-1,-1,-1,-1,-1,-1,-1,-1,-1,-1,-1,-1,-1,-1,-1,-1,-1,-1,-1,-1,-1,-1,-1,-1,-1,-1,-1,-1,-1,-1,-1,-1,-1,-1,-1,-1,-1,-1,-1,-1,-1,-1,-1,-1,-1,-1,-1,-1,-1,-1,-1,-1,-1,-1,-1,-1,-1],"loss_changes":[2.0612275E4,4.0170327E3,2.2987256E3,6.553047E2,4.0364935E2,1.4093513E3,4.12667E2,1.8810791E2,1.9501855E2,6.4765976E1,1.3378894E2,3.0759442E2,1.12854004E2,1.7093645E2,1.5691211E2,5.410746E1,4.7908493E1,6.912988E1,1.7567255E2,3.2342415E1,1.4806111E1,3.5704124E1,7.497522E1,7.5382324E1,1.2882808E2,3.7749767E1,4.794763E1,3.877581E1,6.1123856E1,4.7859764E1,8.949414E1,1.957547E1,1.4215452E1,1.2516666E1,1.8101013E1,1.1974609E1,1.2546265E2,7.051199E1,5.4255005E1,6.316759E0,1.3882294E1,3.854667E0,1.0894888E1,1.2652483E1,1.60575E1,2.6583912E1,2.3071655E1,5.827362E1,2.5238087E1,6.557232E1,4.246254E1,2.1553535E1,9.046099E0,3.9774165E0,2.4275757E1,1.9326355E1,8.692387E0,1.809793E1,2.6929916E1,3.9589222E1,9.444298E0,2.2612305E1,8.853009E1,0E0,0E0,0E0,0E0,0E0,0E0,0E0,0E0,0E0,0E0,0E0,0E0,0E0,0E0,0E0,0E0,0E0,0E0,0E0,0E0,0E0,0E0,0E0,0E0,0E0,0E0,0E0,0E0,0E0,0E0,0E0,0E0,0E0,0E0,0E0,0E0,0E0,0E0,0E0,0E0,0E0,0E0,0E0,0E0,0E0,0E0,0E0,0E0,0E0,0E0,0E0,0E0,0E0,0E0,0E0,0E0,0E0,0E0,0E0,0E0,0E0,0E0,0E0,0E0],"parents":[2147483647,0,0,1,1,2,2,3,3,4,4,5,5,6,6,7,7,8,8,9,9,10,10,11,11,12,12,13,13,14,14,15,15,16,16,17,17,18,18,19,19,20,20,21,21,22,22,23,23,24,24,25,25,26,26,27,27,28,28,29,29,30,30,31,31,32,32,33,33,34,34,35,35,36,36,37,37,38,38,39,39,40,40,41,41,42,42,43,43,44,44,45,45,46,46,47,47,48,48,49,49,50,50,51,51,52,52,53,53,54,54,55,55,56,56,57,57,58,58,59,59,60,60,61,61,62,62],"right_children":[2,4,6,8,10,12,14,16,18,20,22,24,26,28,30,32,34,36,38,40,42,44,46,48,50,52,54,56,58,60,62,64,66,68,70,72,74,76,78,80,82,84,86,88,90,92,94,96,98,100,102,104,106,108,110,112,114,116,118,120,122,124,126,-1,-1,-1,-1,-1,-1,-1,-1,-1,-1,-1,-1,-1,-1,-1,-1,-1,-1,-1,-1,-1,-1,-1,-1,-1,-1,-1,-1,-1,-1,-1,-1,-1,-1,-1,-1,-1,-1,-1,-1,-1,-1,-1,-1,-1,-1,-1,-1,-1,-1,-1,-1,-1,-1,-1,-1,-1,-1,-1,-1,-1,-1,-1,-1],"split_conditions":[-1.3917294E0,4.4706783E0,1.7053367E0,2.471391E0,-4.936887E-1,-5.712878E-1,-6.212834E-1,3.5580163E0,1.2278689E0,3.8045877E-1,-2.331378E0,-1.9896922E0,-2.0778296E0,-2.215197E0,-2.028061E0,-4.7003055E0,-2.0126576E0,-1.8691237E0,-1.2484473E1,-1.6717932E-1,6.769893E0,-1.3316304E1,4.4045596E0,1.624375E-1,6.5476007E0,-3.534162E-2,-1.2698725E0,-7.8264433E-1,4.128269E0,-6.5878636E-1,-1.0846331E1,-3.6061263E-1,-1.1968045E1,-1.7436945E0,2.4163823E0,4.1160874E0,1.0004439E0,-2.225384E0,-1.7012362E0,1.5526032E-1,-2.8773087E-1,-1.2754108E1,1.5516708E0,4.3235073E0,8.051776E0,5.232829E0,1.6021347E0,-2.2944266E-1,3.9288757E1,2.5848767E-1,8.437408E-1,-5.2404785E-1,-8.3961797E-1,5.85756E0,5.705175E-1,4.9902477E0,-9.687598E-1,-8.8554424E-1,-1.0603311E1,4.3859177E0,1.219454E1,7.7816095E0,-9.783899E-1,-0E0,1.01706855E-1,-4.8423287E-2,3.2358795E-2,-4.1472312E-2,3.9642602E-2,-1.13288954E-1,-0E0,1.3054782E-1,-0E0,1.15964495E-1,3.688982E-2,6.400126E-2,-4.165253E-2,1.15186945E-1,2.5833635E-2,-1.4727226E-2,4.794691E-2,-0E0,1.156041E-1,-0E0,5.01102E-2,-0E0,-9.136398E-2,-0E0,-8.4371984E-2,8.770744E-2,-0E0,2.6116222E-2,-6.9132E-2,-0E0,-1.20135106E-1,-2.3784151E-2,1.04703836E-1,-3.357693E-2,4.7880884E-2,7.637437E-2,-8.82192E-3,-7.738724E-2,-0E0,-1.9018468E-2,8.063631E-2,-0E0,-9.1997914E-2,1.9157281E-2,-3.5887748E-2,-1.1310511E-1,-0E0,1.0195798E-1,-0E0,5.8097984E-3,-5.9002947E-2,5.5549294E-2,-4.4312116E-2,-1.07708946E-1,-0E0,7.110726E-2,-3.9784316E-2,-1.0847055E-1,-0E0,-1.2889376E-1,-1.8734279E-3,-7.828361E-3,-1.0472063E-1],"split_indices":[4614,4319,2005,5994,375,4614,4440,4159,3395,146,4614,4378,375,4378,503,4870,4614,4614,6148,5430,7412,6148,7565,4102,7412,4614,4440,503,7352,4614,6148,3603,6148,2843,6452,406,297,4614,4614,6471,8608,6148,2005,7331,8207,6384,2005,7725,1785,146,6471,3876,5413,7647,2717,7352,4143,4614,6148,7352,4710,3022,4614,0,0,0,0,0,0,0,0,0,0,0,0,0,0,0,0,0,0,0,0,0,0,0,0,0,0,0,0,0,0,0,0,0,0,0,0,0,0,0,0,0,0,0,0,0,0,0,0,0,0,0,0,0,0,0,0,0,0,0,0,0,0,0,0],"split_type":[0,0,0,0,0,0,0,0,0,0,0,0,0,0,0,0,0,0,0,0,0,0,0,0,0,0,0,0,0,0,0,0,0,0,0,0,0,0,0,0,0,0,0,0,0,0,0,0,0,0,0,0,0,0,0,0,0,0,0,0,0,0,0,0,0,0,0,0,0,0,0,0,0,0,0,0,0,0,0,0,0,0,0,0,0,0,0,0,0,0,0,0,0,0,0,0,0,0,0,0,0,0,0,0,0,0,0,0,0,0,0,0,0,0,0,0,0,0,0,0,0,0,0,0,0,0,0],"sum_hessian":[2.3996172E4,1.0236911E4,1.3759261E4,8.865351E3,1.3715609E3,2.7079907E3,1.105127E4,4.8634213E2,8.379008E3,2.615953E2,1.1099656E3,1.4953901E3,1.2126006E3,5.0161072E2,1.0549659E4,2.5540753E2,2.3093462E2,7.496388E3,8.8261993E2,1.8228288E2,7.9312416E1,1.0509147E2,1.00487415E3,8.800218E2,6.153684E2,1.0956817E2,1.1030325E3,1.7589728E2,3.2571344E2,2.0025183E2,1.0349407E4,1.7100658E2,8.4400955E1,7.587411E1,1.550605E2,5.75903E3,1.7373585E3,2.5892743E2,6.236925E2,5.8974022E1,1.2330886E2,3.1584774E1,4.7727646E1,4.680957E1,5.82819E1,1.0012142E2,9.0475275E2,7.3477734E2,1.452444E2,3.2537802E2,2.8999042E2,6.79267E1,4.164147E1,4.7871346E1,1.0551611E3,1.1866681E2,5.723047E1,6.9930336E1,2.5578311E2,1.3081392E2,6.943791E1,9.644134E3,7.052735E2,1.4757777E1,1.5624881E2,4.1179665E1,4.3221294E1,3.7722313E1,3.8151794E1,1.292936E2,2.5766909E1,5.755187E3,3.8426847E0,1.4588269E3,2.7853165E2,1.0812808E2,1.5079935E2,5.0997623E2,1.1371624E2,3.489876E1,2.4075262E1,1.7108824E1,1.06200035E2,1.6333847E1,1.5250927E1,9.121904E0,3.860574E1,1.0011019E1,3.6798553E1,4.9494877E1,8.787022E0,4.6763172E1,5.335825E1,1.2163436E1,8.925893E2,2.3951796E1,7.1082556E2,5.1998787E1,9.3245605E1,1.849952E2,1.4038283E2,2.1569403E2,7.429637E1,1.3779182E1,5.4147514E1,3.253784E0,3.8387688E1,2.3939188E1,2.393216E1,1.0366879E3,1.8473267E1,9.371094E1,2.4955872E1,3.2248543E1,2.4981926E1,3.846306E1,3.1467276E1,2.2446855E2,3.1314562E1,5.417585E1,7.663808E1,6.3578117E1,5.859793E0,9.614087E3,3.0046656E1,1.4073517E2,5.645383E2],"tree_param":{"num_deleted":"0","num_feature":"9088","num_nodes":"127","size_leaf_vector":"0"}},{"base_weights":[-1.8826106E-1,7.802779E-1,-9.914463E-1,1.1018432E0,-4.1646028E-1,2.9998563E-2,-1.1140023E0,1.1766509E0,4.7353527E-1,3.2398233E-1,-7.28412E-1,6.329844E-1,-5.596675E-1,-5.298329E-1,-1.1860015E0,1.249394E0,9.255382E-1,8.455263E-1,-1.3733572E-1,6.3486075E-1,-5.7657546E-1,-3.3829394E-1,-1.0593301E0,9.171548E-1,-1.65958E-1,1.0042221E-1,-8.438464E-1,5.464383E-1,-9.0924466E-1,-5.133574E-1,-1.2167588E0,1.2525686E0,-0E0,1.0389221E0,-0E0,1.1013138E0,3.839735E-1,3.370191E-1,-7.452948E-1,9.0999705E-1,-1.5887555E-2,-7.6358014E-1,-0E0,1.8868683E-1,-7.112991E-1,-1.1000357E0,-3.6657327E-3,-0E0,1.0625105E0,3.5905153E-1,-6.37663E-1,-3.477178E-1,6.6728866E-1,-9.8682016E-1,-0E0,7.9016197E-1,-1.05291635E-1,-9.789235E-1,-0E0,1.6891691E-1,-8.8760567E-1,-9.677798E-1,-1.2461177E0,1.2536119E-1,-0E0,-0E0,3.0426675E-2,4.964372E-2,1.13006964E-1,-7.326824E-2,3.349675E-2,1.12228155E-1,-0E0,6.7547895E-2,-1.9494342E-2,8.3315685E-2,-0E0,-0E0,-9.2799276E-2,1.0358751E-1,-0E0,2.0528091E-2,-6.580811E-2,-0E0,-9.481133E-2,-0E0,4.463089E-2,6.380735E-2,-4.263888E-2,-0E0,-8.87872E-2,-0E0,-1.1191032E-1,-0E0,-3.8012E-2,5.1600695E-2,-4.0098548E-2,-0E0,1.1142528E-1,7.424437E-2,-0E0,-0E0,-9.089919E-2,-0E0,-8.450929E-2,8.829261E-2,-0E0,-1.0700221E-1,-0E0,5.666212E-2,-3.510252E-2,9.4010316E-2,-0E0,3.6036137E-2,-4.0660463E-2,-6.430077E-2,-1.15630664E-1,4.3672714E-2,-3.793925E-2,6.275565E-2,-3.7239928E-2,-0E0,-1.0258742E-1,-1.7800419E-2,-1.12605594E-1,-3.0081735E-3,-1.24903634E-1],"categories":[],"categories_nodes":[],"categories_segments":[],"categories_sizes":[],"default_left":[0,0,0,0,0,0,0,0,0,0,0,0,0,0,0,0,0,0,0,0,0,0,0,0,0,0,0,0,0,0,0,0,0,0,0,0,0,0,0,0,0,0,0,0,0,0,0,0,0,0,0,0,0,0,0,0,0,0,0,0,0,0,0,0,0,0,0,0,0,0,0,0,0,0,0,0,0,0,0,0,0,0,0,0,0,0,0,0,0,0,0,0,0,0,0,0,0,0,0,0,0,0,0,0,0,0,0,0,0,0,0,0,0,0,0,0,0,0,0,0,0,0,0,0,0,0,0],"id":8,"left_children":[1,3,5,7,9,11,13,15,17,19,21,23,25,27,29,31,33,35,37,39,41,43,45,47,49,51,53,55,57,59,61,63,65,67,69,71,73,75,77,79,81,83,85,87,89,91,93,95,97,99,101,103,105,107,109,111,113,115,117,119,121,123,125,-1,-1,-1,-1,-1,-1,-1,-1,-1,-1,-1,-1,-1,-1,-1,-1,-1,-1,-1,-1,-1,-1,-1,-1,-1,-1,-1,-1,-1,-1,-1,-1,-1,-1,-1,-1,-1,-1,-1,-1,-1,-1,-1,-1,-1,-1,-1,-1,-1,-1,-1,-1,-1,-1,-1,-1,-1,-1,-1,-1,-1,-1,-1,-1],"loss_changes":[1.7768406E4,3.9890317E3,1.5744609E3,3.6711426E2,5.087804E2,4.7347107E2,4.5221582E2,1.1111719E2,2.0771509E2,1.7931134E2,1.856886E2,1.5867322E2,1.3196466E2,5.1007288E2,1.8789258E2,1.36171875E1,1.6638672E2,5.108954E1,9.756217E1,9.5381226E1,2.3568699E1,1.4754657E2,2.432965E1,6.016339E1,4.3799423E1,5.1302E1,5.9471497E1,5.7117012E1,6.1394043E1,1.2164718E2,4.698535E1,1.1151367E1,1.3102106E0,5.6697754E1,4.3364708E1,1.1765717E1,4.082951E1,3.5881573E1,2.4974792E1,3.0496765E1,2.339784E1,1.9593979E1,3.3188121E0,8.203094E1,4.9633133E1,2.1010925E1,3.6365058E0,1.610905E1,2.6640564E1,1.4896421E1,2.169374E1,2.1303593E1,1.4444168E1,2.5973724E1,1.374902E1,2.9727753E1,1.1006058E1,3.3237305E1,1.0600163E1,3.966285E1,3.63461E1,1.1639038E2,1.715039E1,0E0,0E0,0E0,0E0,0E0,0E0,0E0,0E0,0E0,0E0,0E0,0E0,0E0,0E0,0E0,0E0,0E0,0E0,0E0,0E0,0E0,0E0,0E0,0E0,0E0,0E0,0E0,0E0,0E0,0E0,0E0,0E0,0E0,0E0,0E0,0E0,0E0,0E0,0E0,0E0,0E0,0E0,0E0,0E0,0E0,0E0,0E0,0E0,0E0,0E0,0E0,0E0,0E0,0E0,0E0,0E0,0E0,0E0,0E0,0E0,0E0,0E0,0E0,0E0],"parents":[2147483647,0,0,1,1,2,2,3,3,4,4,5,5,6,6,7,7,8,8,9,9,10,10,11,11,12,12,13,13,14,14,15,15,16,16,17,17,18,18,19,19,20,20,21,21,22,22,23,23,24,24,25,25,26,26,27,27,28,28,29,29,30,30,31,31,32,32,33,33,34,34,35,35,36,36,37,37,38,38,39,39,40,40,41,41,42,42,43,43,44,44,45,45,46,46,47,47,48,48,49,49,50,50,51,51,52,52,53,53,54,54,55,55,56,56,57,57,58,58,59,59,60,60,61,61,62,62],"right_children":[2,4,6,8,10,12,14,16,18,20,22,24,26,28,30,32,34,36,38,40,42,44,46,48,50,52,54,56,58,60,62,64,66,68,70,72,74,76,78,80,82,84,86,88,90,92,94,96,98,100,102,104,106,108,110,112,114,116,118,120,122,124,126,-1,-1,-1,-1,-1,-1,-1,-1,-1,-1,-1,-1,-1,-1,-1,-1,-1,-1,-1,-1,-1,-1,-1,-1,-1,-1,-1,-1,-1,-1,-1,-1,-1,-1,-1,-1,-1,-1,-1,-1,-1,-1,-1,-1,-1,-1,-1,-1,-1,-1,-1,-1,-1,-1,-1,-1,-1,-1,-1,-1,-1,-1,-1,-1],"split_conditions":[3.098975E0,-1.1895144E0,1.7767799E-1,-5.3821665E-1,-1.3154631E0,-1.6006032E0,1.6721358E0,-1.7920074E0,5.7047725E-1,-4.0407705E-1,-6.701474E-1,-1.113322E0,-1.6112595E0,-1.0396032E0,-1.8367634E0,1.4663463E0,2.1158972E0,-6.63777E-1,2.650495E0,4.0305334E-1,1.7872696E-1,2.7350268E-1,2.6000428E-1,-1.3358112E1,-2.5674486E0,-1.2553968E1,9.467118E0,3.3771882E0,1.1619937E1,2.624955E0,-6.3386726E-1,1.6232474E0,5.818618E0,7.160946E0,-7.7206783E0,8.4047663E-1,5.688801E0,1.2249534E0,-1.659393E0,2.032234E-1,3.2083893E-1,-3.9561552E-1,-1.7789638E-1,-3.4191358E-1,1.4083102E0,-5.1184416E0,5.56297E0,5.3818956E-2,4.5839686E0,-5.813781E-1,2.0600948E0,7.9877834E0,5.725363E0,6.3384986E-1,-3.6742508E-1,2.8323698E-1,-2.678092E-1,3.3907342E-1,-5.0508034E-1,-2.694646E-1,5.632004E0,-1.0638845E0,-3.4194417E0,1.2536119E-1,-0E0,-0E0,3.0426675E-2,4.964372E-2,1.13006964E-1,-7.326824E-2,3.349675E-2,1.12228155E-1,-0E0,6.7547895E-2,-1.9494342E-2,8.3315685E-2,-0E0,-0E0,-9.2799276E-2,1.0358751E-1,-0E0,2.0528091E-2,-6.580811E-2,-0E0,-9.481133E-2,-0E0,4.463089E-2,6.380735E-2,-4.263888E-2,-0E0,-8.87872E-2,-0E0,-1.1191032E-1,-0E0,-3.8012E-2,5.1600695E-2,-4.0098548E-2,-0E0,1.1142528E-1,7.424437E-2,-0E0,-0E0,-9.089919E-2,-0E0,-8.450929E-2,8.829261E-2,-0E0,-1.0700221E-1,-0E0,5.666212E-2,-3.510252E-2,9.4010316E-2,-0E0,3.6036137E-2,-4.0660463E-2,-6.430077E-2,-1.15630664E-1,4.3672714E-2,-3.793925E-2,6.275565E-2,-3.7239928E-2,-0E0,-1.0258742E-1,-1.7800419E-2,-1.12605594E-1,-3.0081735E-3,-1.24903634E-1],"split_indices":[4319,4614,5029,4152,375,4444,2005,4614,5029,4614,4614,4614,4614,4614,4614,154,72,4440,2005,146,3876,146,370,6148,3338,6148,4411,4177,5097,3515,375,467,4281,4422,7289,1487,7504,2759,4440,8166,6674,5162,3885,375,2005,2887,7174,5235,4661,4614,1764,7348,4319,3941,5029,3460,8105,6111,4614,1754,7647,4614,3059,0,0,0,0,0,0,0,0,0,0,0,0,0,0,0,0,0,0,0,0,0,0,0,0,0,0,0,0,0,0,0,0,0,0,0,0,0,0,0,0,0,0,0,0,0,0,0,0,0,0,0,0,0,0,0,0,0,0,0,0,0,0,0,0],"split_type":[0,0,0,0,0,0,0,0,0,0,0,0,0,0,0,0,0,0,0,0,0,0,0,0,0,0,0,0,0,0,0,0,0,0,0,0,0,0,0,0,0,0,0,0,0,0,0,0,0,0,0,0,0,0,0,0,0,0,0,0,0,0,0,0,0,0,0,0,0,0,0,0,0,0,0,0,0,0,0,0,0,0,0,0,0,0,0,0,0,0,0,0,0,0,0,0,0,0,0,0,0,0,0,0,0,0,0,0,0,0,0,0,0,0,0,0,0,0,0,0,0,0,0,0,0,0,0],"sum_hessian":[2.2838115E4,1.0347683E4,1.2490433E4,8.162713E3,2.1849695E3,1.329358E3,1.1161075E4,7.279945E3,8.827679E2,6.381674E2,1.546802E3,6.6563684E2,6.6372125E2,1.2400009E3,9.921074E3,5.613569E3,1.6663762E3,5.588107E2,3.2395715E2,4.8267767E2,1.5548975E2,7.238635E2,8.229385E2,5.0021906E2,1.6541777E2,1.8917702E2,4.745442E2,3.163149E2,9.23686E2,4.4810754E2,9.472967E3,5.593828E3,1.9740776E1,1.4766329E3,1.8974329E2,3.455217E2,2.1328903E2,1.7275931E2,1.5119786E2,3.500174E2,1.3266025E2,1.2903513E2,2.6454617E1,2.8891925E2,4.3494424E2,7.8325977E2,3.967871E1,7.423526E1,4.259838E2,6.826394E1,9.715383E1,9.582207E1,9.335496E1,4.0804218E2,6.650202E1,2.4137268E2,7.494223E1,8.609241E2,6.2761868E1,1.4928596E2,2.988216E2,1.0354862E3,8.43748E3,5.5916187E3,2.2093623E0,5.688312E0,1.40524645E1,2.2828723E2,1.2483457E3,5.1834553E1,1.3790874E2,3.4206924E2,3.4524405E0,1.5333589E2,5.9953148E1,7.987584E1,9.288347E1,2.4708122E1,1.2648974E2,2.98517E2,5.1500412E1,8.71445E1,4.551576E1,2.3578526E1,1.054566E2,9.893214E0,1.6561403E1,1.7633775E2,1.125815E2,9.286932E1,3.4207492E2,9.690149E0,7.7356964E2,1.4607353E1,2.507136E1,3.9157642E1,3.5077618E1,1.7195759E1,4.0878802E2,4.2913044E1,2.5350895E1,2.3139072E1,7.401476E1,4.985355E1,4.596852E1,7.180895E1,2.1545998E1,3.6972336E2,3.831881E1,2.7852182E1,3.8649837E1,2.0412485E2,3.7247833E1,1.6395983E1,5.854625E1,3.1715524E2,5.4376886E2,3.2758568E1,3.00033E1,9.08063E1,5.8479664E1,4.0612007E1,2.5820956E2,1.8345667E2,8.5202954E2,2.8409142E1,8.409071E3],"tree_param":{"num_deleted":"0","num_feature":"9088","num_nodes":"127","size_leaf_vector":"0"}},{"base_weights":[-1.7563343E-1,-8.206396E-1,7.466986E-1,6.2504105E-2,-1.0611235E0,1.0043303E0,-8.285585E-2,-5.139828E-1,6.344989E-1,-1.1424146E0,-3.5247406E-1,3.00722E-1,1.0922081E0,4.616166E-1,-5.53479E-1,2.684609E-1,-8.034833E-1,-0E0,9.3070877E-1,-6.1944795E-1,-1.1860288E0,-8.2751036E-1,9.300387E-2,7.8041536E-1,-2.2651276E-1,5.8542866E-1,1.1495194E0,-2.2391307E-1,7.240763E-1,6.445046E-2,-9.224796E-1,-2.3833033E-1,6.2236243E-1,-9.7858095E-1,-2.3430832E-1,7.837391E-1,-2.4648403E-1,2.5209907E-1,1.0476522E0,-0E0,-8.8893574E-1,-1.2033377E0,-6.0771626E-1,-0E0,-9.3062437E-1,4.8574468E-1,-3.8290086E-1,-0E0,9.100697E-1,1.5655534E-1,-6.3804126E-1,-1.2605534E-1,7.957292E-1,1.1719457E0,5.839406E-1,1.5063947E-1,-5.746944E-1,9.141799E-1,-0E0,-3.518164E-1,6.113447E-1,-1.0873975E0,-1.6583425E-1,4.8095123E-3,-6.7871526E-2,9.427769E-2,-0E0,-0E0,-1.0188418E-1,-6.272466E-2,7.019183E-3,-0E0,9.198047E-2,1.6996661E-2,-6.571303E-2,5.094362E-2,-2.7011245E-2,1.0927101E-1,-0E0,6.173876E-2,-3.4177314E-2,-0E0,-9.872019E-2,-0E0,-1.2057213E-1,-0E0,-9.1544926E-2,-1.818062E-2,3.1826317E-2,-1.02551796E-1,-0E0,-0E0,8.711278E-2,-6.2033862E-2,2.3441836E-2,1.3383265E-2,-4.092085E-2,-0E0,9.715206E-2,-2.0296283E-2,6.188197E-2,-8.584467E-2,-0E0,1.5492782E-2,-7.651116E-2,9.7725525E-2,1.7070696E-2,7.0217475E-2,1.1907583E-1,7.474148E-2,-3.1522454E-3,5.7750225E-2,-1.6936861E-2,-7.645489E-2,-0E0,1.0196519E-1,5.752306E-3,5.5856623E-2,-3.0790213E-2,-7.7844165E-2,3.0817378E-3,8.122149E-2,-0E0,-0E0,-1.11969806E-1,2.6014304E-2,-5.493019E-2],"categories":[],"categories_nodes":[],"categories_segments":[],"categories_sizes":[],"default_left":[0,0,0,0,0,0,0,0,0,0,0,0,0,0,0,0,0,0,0,0,0,0,0,0,0,0,0,0,0,0,0,0,0,0,0,0,0,0,0,0,0,0,0,0,0,0,0,0,0,0,0,0,0,0,0,0,0,0,0,0,0,0,0,0,0,0,0,0,0,0,0,0,0,0,0,0,0,0,0,0,0,0,0,0,0,0,0,0,0,0,0,0,0,0,0,0,0,0,0,0,0,0,0,0,0,0,0,0,0,0,0,0,0,0,0,0,0,0,0,0,0,0,0,0,0,0,0],"id":9,"left_children":[1,3,5,7,9,11,13,15,17,19,21,23,25,27,29,31,33,35,37,39,41,43,45,47,49,51,53,55,57,59,61,63,65,67,69,71,73,75,77,79,81,83,85,87,89,91,93,95,97,99,101,103,105,107,109,111,113,115,117,119,121,123,125,-1,-1,-1,-1,-1,-1,-1,-1,-1,-1,-1,-1,-1,-1,-1,-1,-1,-1,-1,-1,-1,-1,-1,-1,-1,-1,-1,-1,-1,-1,-1,-1,-1,-1,-1,-1,-1,-1,-1,-1,-1,-1,-1,-1,-1,-1,-1,-1,-1,-1,-1,-1,-1,-1,-1,-1,-1,-1,-1,-1,-1,-1,-1,-1],"loss_changes":[1.2839244E4,2.708496E3,1.905916E3,8.950413E2,5.6081836E2,4.053086E2,5.374975E2,3.092074E2,2.6544946E2,1.8610352E2,2.2773473E2,1.9919604E2,1.5729346E2,1.7792537E2,2.6693652E2,6.716726E1,8.6356445E1,7.7754074E1,6.1801086E1,1.2370978E2,6.436914E1,4.928369E1,9.9482346E1,4.367874E1,6.0771362E1,1.00833725E2,5.0691895E1,3.7830235E1,1.0062778E2,9.6771706E1,7.723761E1,2.3161587E1,4.0298897E1,3.059552E1,3.502146E1,1.2265423E1,6.183468E1,2.2739326E1,2.8387573E1,4.551974E1,4.934662E1,2.4026367E1,5.517903E1,3.7396061E0,3.5043823E1,5.2038445E1,3.7096355E1,3.714785E0,1.8345154E1,3.263945E1,2.8734924E1,2.9952633E1,4.4826813E1,2.6622559E1,2.9561356E1,1.9103346E1,2.2255493E1,4.009195E1,2.3579578E1,4.4129745E1,2.4502304E1,2.143689E1,2.5731375E1,0E0,0E0,0E0,0E0,0E0,0E0,0E0,0E0,0E0,0E0,0E0,0E0,0E0,0E0,0E0,0E0,0E0,0E0,0E0,0E0,0E0,0E0,0E0,0E0,0E0,0E0,0E0,0E0,0E0,0E0,0E0,0E0,0E0,0E0,0E0,0E0,0E0,0E0,0E0,0E0,0E0,0E0,0E0,0E0,0E0,0E0,0E0,0E0,0E0,0E0,0E0,0E0,0E0,0E0,0E0,0E0,0E0,0E0,0E0,0E0,0E0,0E0,0E0,0E0],"parents":[2147483647,0,0,1,1,2,2,3,3,4,4,5,5,6,6,7,7,8,8,9,9,10,10,11,11,12,12,13,13,14,14,15,15,16,16,17,17,18,18,19,19,20,20,21,21,22,22,23,23,24,24,25,25,26,26,27,27,28,28,29,29,30,30,31,31,32,32,33,33,34,34,35,35,36,36,37,37,38,38,39,39,40,40,41,41,42,42,43,43,44,44,45,45,46,46,47,47,48,48,49,49,50,50,51,51,52,52,53,53,54,54,55,55,56,56,57,57,58,58,59,59,60,60,61,61,62,62],"right_children":[2,4,6,8,10,12,14,16,18,20,22,24,26,28,30,32,34,36,38,40,42,44,46,48,50,52,54,56,58,60,62,64,66,68,70,72,74,76,78,80,82,84,86,88,90,92,94,96,98,100,102,104,106,108,110,112,114,116,118,120,122,124,126,-1,-1,-1,-1,-1,-1,-1,-1,-1,-1,-1,-1,-1,-1,-1,-1,-1,-1,-1,-1,-1,-1,-1,-1,-1,-1,-1,-1,-1,-1,-1,-1,-1,-1,-1,-1,-1,-1,-1,-1,-1,-1,-1,-1,-1,-1,-1,-1,-1,-1,-1,-1,-1,-1,-1,-1,-1,-1,-1,-1,-1,-1,-1,-1],"split_conditions":[4.2318487E-1,2.9326565E0,-9.372075E-1,2.6793677E-1,2.6969366E0,1.0457338E1,7.470313E0,-2.975079E0,1.0803149E1,6.5854216E0,5.7434773E-1,2.0179286E0,5.2727427E0,3.0170183E0,3.1018124E0,7.7966914E0,1.0330711E1,-3.1088371E0,5.2887444E0,-2.083568E0,1.2239872E1,-3.3209743E0,1.5011121E-1,5.2061973E0,6.8839855E0,3.4684741E-1,5.43167E0,-1.6219685E0,-4.90175E-1,1.0609353E1,1.115993E1,7.447465E0,7.8374624E0,-6.067688E0,-1.15519226E-1,5.8451242E0,7.4823437E0,1.3709421E-1,3.2916403E-1,2.8711206E-1,-1.08059764E-1,-5.3073807E0,4.7237067E0,3.9511323E-3,1.1575668E1,-2.3724222E-1,6.9130507E0,1.6138635E0,-6.879839E0,4.968581E0,5.4663243E0,4.6785455E0,3.9451737E0,-2.6846674E-1,5.7255898E0,2.707476E0,3.335441E0,-2.4458873E-1,-4.679274E0,7.7745895E0,1.0775183E1,3.695959E-1,-6.377962E-2,4.8095123E-3,-6.7871526E-2,9.427769E-2,-0E0,-0E0,-1.0188418E-1,-6.272466E-2,7.019183E-3,-0E0,9.198047E-2,1.6996661E-2,-6.571303E-2,5.094362E-2,-2.7011245E-2,1.0927101E-1,-0E0,6.173876E-2,-3.4177314E-2,-0E0,-9.872019E-2,-0E0,-1.2057213E-1,-0E0,-9.1544926E-2,-1.818062E-2,3.1826317E-2,-1.02551796E-1,-0E0,-0E0,8.711278E-2,-6.2033862E-2,2.3441836E-2,1.3383265E-2,-4.092085E-2,-0E0,9.715206E-2,-2.0296283E-2,6.188197E-2,-8.584467E-2,-0E0,1.5492782E-2,-7.651116E-2,9.7725525E-2,1.7070696E-2,7.0217475E-2,1.1907583E-1,7.474148E-2,-3.1522454E-3,5.7750225E-2,-1.6936861E-2,-7.645489E-2,-0E0,1.0196519E-1,5.752306E-3,5.5856623E-2,-3.0790213E-2,-7.7844165E-2,3.0817378E-3,8.122149E-2,-0E0,-0E0,-1.11969806E-1,2.6014304E-2,-5.493019E-2],"split_indices":[5078,4159,4152,4794,151,4710,7410,4307,4710,7410,4794,4159,4508,5994,4159,4254,5097,4307,4508,4638,4710,4307,8166,4508,6433,4794,4180,5810,328,5097,5097,7410,7410,4377,5320,7458,7410,5204,417,7124,4455,2887,7352,7529,5097,7075,4508,4640,7199,4742,4742,7352,4366,4794,6384,3009,4513,2887,7427,7458,6066,2969,5204,0,0,0,0,0,0,0,0,0,0,0,0,0,0,0,0,0,0,0,0,0,0,0,0,0,0,0,0,0,0,0,0,0,0,0,0,0,0,0,0,0,0,0,0,0,0,0,0,0,0,0,0,0,0,0,0,0,0,0,0,0,0,0,0],"split_type":[0,0,0,0,0,0,0,0,0,0,0,0,0,0,0,0,0,0,0,0,0,0,0,0,0,0,0,0,0,0,0,0,0,0,0,0,0,0,0,0,0,0,0,0,0,0,0,0,0,0,0,0,0,0,0,0,0,0,0,0,0,0,0,0,0,0,0,0,0,0,0,0,0,0,0,0,0,0,0,0,0,0,0,0,0,0,0,0,0,0,0,0,0,0,0,0,0,0,0,0,0,0,0,0,0,0,0,0,0,0,0,0,0,0,0,0,0,0,0,0,0,0,0,0,0,0,0],"sum_hessian":[2.1580387E4,1.2705804E4,8.874582E3,2.7104697E3,9.995334E3,6.780745E3,2.0938374E3,1.341232E3,1.3692378E3,8.9540205E3,1.0413135E3,7.655421E2,6.0152026E3,9.6090375E2,1.1329336E3,3.529004E2,9.8833167E2,4.2647018E2,9.427675E2,7.0702814E2,8.246992E3,5.147601E2,5.265534E2,4.107494E2,3.5479276E2,6.2898364E2,5.386219E3,2.5549055E2,7.054132E2,4.134879E2,7.194456E2,1.3350124E2,2.1939914E2,7.4232574E2,2.4600595E2,9.354534E1,3.3292487E2,1.5119977E2,7.915678E2,2.0720084E2,4.9982733E2,7.990439E3,2.565533E2,5.086756E1,4.6389252E2,2.9999377E2,2.265596E2,5.598797E1,3.5476144E2,1.7119734E2,1.835954E2,1.3266011E2,4.9632355E2,5.1636816E3,2.225374E2,1.0979955E2,1.4569101E2,5.6290686E2,1.4250636E2,2.244211E2,1.8906682E2,5.7981067E2,1.3963496E2,6.7185555E1,6.631568E1,1.4089304E2,7.85061E1,2.8042194E1,7.142835E2,1.216976E2,1.2430835E2,1.1159021E1,8.2386314E1,1.5323285E2,1.7969202E2,1.1411672E2,3.708304E1,7.513999E2,4.0167877E1,8.0447754E1,1.26753075E2,4.393786E1,4.5588947E2,1.5035933E1,7.9754033E3,7.770642E1,1.7884691E2,2.0901524E1,2.9966038E1,4.1531815E2,4.857437E1,1.3821364E2,1.6178014E2,1.7532387E2,5.1235737E1,3.797653E1,1.8011438E1,2.403533E1,3.307261E2,8.416382E1,8.703352E1,1.4037006E2,4.322535E1,8.132878E1,5.1331326E1,3.7217615E2,1.2414741E2,2.194385E2,4.944243E3,1.8865494E2,3.3882465E1,6.0399994E1,4.939956E1,1.20348595E2,2.5342413E1,4.9078842E2,7.211843E1,4.6174538E1,9.6331825E1,1.1841883E2,1.06002266E2,1.4421248E2,4.485434E1,1.5876937E1,5.639337E2,5.3811966E1,8.5823E1],"tree_param":{"num_deleted":"0","num_feature":"9088","num_nodes":"127","size_leaf_vector":"0"}},{"base_weights":[-1.7051202E-1,7.469877E-1,-8.9973646E-1,1.0063561E0,-2.7593884E-1,-2.1997118E-1,-1.0894362E0,1.0988567E0,3.3581752E-1,-7.351517E-1,5.9033954E-1,1.6043979E-1,-8.319348E-1,-4.952544E-1,-1.1458615E0,1.1480383E0,6.359786E-1,-2.7325487E-1,7.9807514E-1,1.3986973E-1,-9.3760496E-1,-0E0,8.539473E-1,6.15993E-1,-4.2274618E-1,-2.7149996E-1,-9.7566015E-1,8.963897E-2,-7.681696E-1,-7.1440816E-1,-1.1713274E0,1.1696043E0,7.2753465E-1,8.774764E-1,-7.576895E-2,3.996304E-1,-6.239687E-1,3.625101E-1,1.0418556E0,-1.8185261E-1,8.2483864E-1,1.6646127E-1,-1.0371536E0,-5.627075E-1,3.927853E-1,2.0894633E-1,1.0133342E0,9.2814404E-1,-0E0,1.3528858E-2,-7.1142817E-1,3.0879647E-2,-7.104448E-1,-0E0,-1.0256875E0,6.195885E-1,-6.870786E-1,-0E0,-8.7722564E-1,-8.625535E-2,-1.013224E0,-1.1835891E0,-5.8099985E-1,8.129803E-2,1.18578784E-1,1.0037463E-1,-0E0,1.4015782E-2,1.0553726E-1,1.8015018E-2,-6.24788E-2,-2.9121926E-2,6.730091E-2,-8.418645E-2,-0E0,7.774263E-2,-6.2900707E-3,1.0605818E-1,-0E0,2.5815217E-2,-5.9132714E-2,1.03119925E-1,-0E0,6.983619E-2,-2.0112326E-2,-1.1279221E-1,-4.6450164E-2,-8.2111605E-2,-0E0,6.604349E-2,-8.904423E-3,6.869002E-2,-1.0459536E-3,1.0700261E-1,-0E0,-0E0,9.844125E-2,6.3043155E-2,-2.6098195E-2,4.6750333E-2,-4.0670346E-2,-1.5187348E-2,-9.693047E-2,5.528989E-2,-3.081259E-2,-0E0,-8.4957875E-2,-4.1681644E-2,4.512208E-3,-0E0,-1.0544554E-1,-1.6207397E-5,8.241159E-2,-0E0,-8.791095E-2,-2.1953246E-2,3.2258138E-2,-0E0,-9.4960324E-2,-4.3565873E-2,6.1003327E-2,-0E0,-1.059906E-1,-1.1941619E-1,-7.26622E-2,-0E0,-9.26547E-2],"categories":[],"categories_nodes":[],"categories_segments":[],"categories_sizes":[],"default_left":[0,0,0,0,0,0,0,0,0,0,0,0,0,0,0,0,0,0,0,0,0,0,0,0,0,0,0,0,0,0,0,0,0,0,0,0,0,0,0,0,0,0,0,0,0,0,0,0,0,0,0,0,0,0,0,0,0,0,0,0,0,0,0,0,0,0,0,0,0,0,0,0,0,0,0,0,0,0,0,0,0,0,0,0,0,0,0,0,0,0,0,0,0,0,0,0,0,0,0,0,0,0,0,0,0,0,0,0,0,0,0,0,0,0,0,0,0,0,0,0,0,0,0,0,0,0,0],"id":10,"left_children":[1,3,5,7,9,11,13,15,17,19,21,23,25,27,29,31,33,35,37,39,41,43,45,47,49,51,53,55,57,59,61,63,65,67,69,71,73,75,77,79,81,83,85,87,89,91,93,95,97,99,101,103,105,107,109,111,113,115,117,119,121,123,125,-1,-1,-1,-1,-1,-1,-1,-1,-1,-1,-1,-1,-1,-1,-1,-1,-1,-1,-1,-1,-1,-1,-1,-1,-1,-1,-1,-1,-1,-1,-1,-1,-1,-1,-1,-1,-1,-1,-1,-1,-1,-1,-1,-1,-1,-1,-1,-1,-1,-1,-1,-1,-1,-1,-1,-1,-1,-1,-1,-1,-1,-1,-1,-1],"loss_changes":[1.3697967E4,2.4108745E3,1.4584551E3,4.3434668E2,7.273592E2,5.890632E2,2.8227246E2,1.26518555E2,2.5592676E2,2.2059125E2,1.0560858E2,4.0912097E2,6.5552795E1,1.3263004E2,7.030176E1,3.2774414E1,1.1615953E2,9.073591E1,4.065564E1,5.411133E1,1.1686401E2,4.178967E1,3.333484E1,1.6611923E2,9.042636E1,3.495199E1,3.0501953E1,9.784452E1,4.6835785E1,7.812265E1,3.76416E1,1.1160645E1,5.8159897E1,5.102014E1,2.5390474E1,2.626227E1,4.0942772E1,4.2427235E1,9.528748E0,2.808876E1,1.7566406E1,1.9289597E1,3.1368408E1,1.5875139E1,1.8177675E1,1.7294378E1,1.7429108E1,3.518332E1,4.88801E1,4.834755E1,4.8298904E1,2.2321234E1,1.4085537E1,3.149157E0,2.029535E1,2.7242443E1,1.4659233E1,4.870242E0,2.826471E1,3.817239E1,1.7171509E1,1.6822266E1,3.9101532E1,0E0,0E0,0E0,0E0,0E0,0E0,0E0,0E0,0E0,0E0,0E0,0E0,0E0,0E0,0E0,0E0,0E0,0E0,0E0,0E0,0E0,0E0,0E0,0E0,0E0,0E0,0E0,0E0,0E0,0E0,0E0,0E0,0E0,0E0,0E0,0E0,0E0,0E0,0E0,0E0,0E0,0E0,0E0,0E0,0E0,0E0,0E0,0E0,0E0,0E0,0E0,0E0,0E0,0E0,0E0,0E0,0E0,0E0,0E0,0E0,0E0,0E0,0E0,0E0],"parents":[2147483647,0,0,1,1,2,2,3,3,4,4,5,5,6,6,7,7,8,8,9,9,10,10,11,11,12,12,13,13,14,14,15,15,16,16,17,17,18,18,19,19,20,20,21,21,22,22,23,23,24,24,25,25,26,26,27,27,28,28,29,29,30,30,31,31,32,32,33,33,34,34,35,35,36,36,37,37,38,38,39,39,40,40,41,41,42,42,43,43,44,44,45,45,46,46,47,47,48,48,49,49,50,50,51,51,52,52,53,53,54,54,55,55,56,56,57,57,58,58,59,59,60,60,61,61,62,62],"right_children":[2,4,6,8,10,12,14,16,18,20,22,24,26,28,30,32,34,36,38,40,42,44,46,48,50,52,54,56,58,60,62,64,66,68,70,72,74,76,78,80,82,84,86,88,90,92,94,96,98,100,102,104,106,108,110,112,114,116,118,120,122,124,126,-1,-1,-1,-1,-1,-1,-1,-1,-1,-1,-1,-1,-1,-1,-1,-1,-1,-1,-1,-1,-1,-1,-1,-1,-1,-1,-1,-1,-1,-1,-1,-1,-1,-1,-1,-1,-1,-1,-1,-1,-1,-1,-1,-1,-1,-1,-1,-1,-1,-1,-1,-1,-1,-1,-1,-1,-1,-1,-1,-1,-1,-1,-1,-1],"split_conditions":[-1.3356147E0,1.3043661E0,1.4606237E-1,-5.166828E0,-1.3408313E0,-2.8850478E-1,-1.4030323E0,1.0068214E0,-1.1968045E1,7.1585402E0,-6.134465E-1,3.550139E-1,1.866708E0,4.167101E0,6.393034E0,7.260741E-1,4.6341297E-1,-2.2429934E0,-1.2865573E-2,1.9146594E0,-3.9285517E-1,2.019453E0,1.0180943E1,-7.150939E-1,-4.6402025E-1,-8.8526964E-1,6.889924E0,-6.249824E-1,4.0901465E0,-7.150939E-1,3.4455519E0,6.5033283E0,-1.9966905E0,7.3464866E0,1.2030988E1,-6.9580686E-1,3.8219288E-2,-1.964767E0,7.487774E-1,-1.9171243E0,5.334989E0,-1.9966905E0,3.7646394E0,-5.775428E-2,5.2168126E0,-1.2451708E-2,6.5518904E0,-3.261281E-1,-1.8187106E-2,-7.947418E-1,4.443943E0,3.6906347E0,1.0373913E1,-1.2397684E1,-1.2698725E0,-2.4910383E0,-8.308967E0,-1.2881991E-1,3.2336226E0,2.2797964E0,1.6180778E0,1.215924E-1,-7.150939E-1,8.129803E-2,1.18578784E-1,1.0037463E-1,-0E0,1.4015782E-2,1.0553726E-1,1.8015018E-2,-6.24788E-2,-2.9121926E-2,6.730091E-2,-8.418645E-2,-0E0,7.774263E-2,-6.2900707E-3,1.0605818E-1,-0E0,2.5815217E-2,-5.9132714E-2,1.03119925E-1,-0E0,6.983619E-2,-2.0112326E-2,-1.1279221E-1,-4.6450164E-2,-8.2111605E-2,-0E0,6.604349E-2,-8.904423E-3,6.869002E-2,-1.0459536E-3,1.0700261E-1,-0E0,-0E0,9.844125E-2,6.3043155E-2,-2.6098195E-2,4.6750333E-2,-4.0670346E-2,-1.5187348E-2,-9.693047E-2,5.528989E-2,-3.081259E-2,-0E0,-8.4957875E-2,-4.1681644E-2,4.512208E-3,-0E0,-1.0544554E-1,-1.6207397E-5,8.241159E-2,-0E0,-8.791095E-2,-2.1953246E-2,3.2258138E-2,-0E0,-9.4960324E-2,-4.3565873E-2,6.1003327E-2,-0E0,-1.059906E-1,-1.1941619E-1,-7.26622E-2,-0E0,-9.26547E-2],"split_indices":[4614,4440,6111,4870,264,503,503,5029,6148,7410,3450,146,4177,7352,7410,146,146,4614,6974,6452,5029,6452,5097,4614,1672,444,7435,4614,5051,4614,6452,4254,4614,4254,7479,6993,6974,4614,6780,4614,6181,4614,3459,6471,7352,5165,7504,5345,146,4614,7352,6227,6068,6148,4440,2008,4599,6656,3323,6452,1764,377,4614,0,0,0,0,0,0,0,0,0,0,0,0,0,0,0,0,0,0,0,0,0,0,0,0,0,0,0,0,0,0,0,0,0,0,0,0,0,0,0,0,0,0,0,0,0,0,0,0,0,0,0,0,0,0,0,0,0,0,0,0,0,0,0,0],"split_type":[0,0,0,0,0,0,0,0,0,0,0,0,0,0,0,0,0,0,0,0,0,0,0,0,0,0,0,0,0,0,0,0,0,0,0,0,0,0,0,0,0,0,0,0,0,0,0,0,0,0,0,0,0,0,0,0,0,0,0,0,0,0,0,0,0,0,0,0,0,0,0,0,0,0,0,0,0,0,0,0,0,0,0,0,0,0,0,0,0,0,0,0,0,0,0,0,0,0,0,0,0,0,0,0,0,0,0,0,0,0,0,0,0,0,0,0,0,0,0,0,0,0,0,0,0,0,0],"sum_hessian":[2.0470867E4,9.05911E3,1.1411758E4,7.2345337E3,1.8245765E3,2.5013635E3,8.910394E3,6.344354E3,8.901795E2,1.2000111E3,6.2456537E2,1.5324744E3,9.688891E2,7.882278E2,8.122166E3,5.7153384E3,6.290157E2,3.7477823E2,5.154013E2,2.1620218E2,9.8380896E2,1.8131183E2,4.4325354E2,8.7001074E2,6.6246356E2,2.1201912E2,7.5687E2,2.3914153E2,5.490863E2,4.7472815E2,7.647438E3,5.4137285E3,3.0160965E2,4.8013223E2,1.4888345E2,1.18635345E2,2.5614288E2,1.9975902E2,3.1564227E2,1.3722388E2,7.8978294E1,7.305505E1,9.107539E2,8.48102E1,9.650162E1,1.0030688E2,3.429467E2,5.759981E2,2.940126E2,2.5004077E2,4.124228E2,1.12104095E2,9.991502E1,4.3047558E1,7.1382245E2,1.4981715E2,8.932437E1,6.719787E1,4.8188843E2,1.6386186E2,3.108663E2,7.475131E3,1.7230699E2,2.6205402E2,5.151675E3,2.1613364E2,8.547602E1,1.04287575E2,3.7584467E2,8.917051E1,5.971295E1,2.3262732E1,9.537261E1,1.9843326E2,5.7709637E1,1.1298512E2,8.67739E1,3.130621E2,2.580153E0,5.439193E1,8.283195E1,6.701484E1,1.1963452E1,4.0935448E1,3.2119606E1,7.709884E2,1.3976552E2,6.3321957E1,2.1488249E1,7.53583E1,2.114332E1,4.5831684E1,5.4475197E1,3.227817E2,2.0164976E1,2.7670368E1,5.4832776E2,8.7473595E1,2.0653902E2,1.3162845E2,1.18412315E2,1.4239136E2,2.7003143E2,5.5727222E1,5.6376873E1,1.0561254E1,8.9353775E1,1.7728224E1,2.5319334E1,2.0170172E1,6.936523E2,2.5066965E1,1.2475018E2,1.5832298E1,7.349207E1,3.8262558E1,2.8935307E1,3.9328716E1,4.425597E2,1.1869768E2,4.516418E1,1.150358E1,2.993627E2,7.284545E3,1.9058623E2,5.90691E1,1.1323789E2],"tree_param":{"num_deleted":"0","num_feature":"9088","num_nodes":"127","size_leaf_vector":"0"}},{"base_weights":[-1.6288774E-1,7.3676044E-1,-8.0341625E-1,1.0041549E0,9.489321E-2,-1.1060808E-1,-1.0222026E0,4.0803042E-1,1.0797045E0,-2.93258E-1,6.1097735E-1,2.8106657E-1,-6.973035E-1,-5.133408E-1,-1.0981292E0,6.207556E-1,-2.3047875E-1,7.68296E-1,1.1244564E0,3.020374E-1,-5.9296656E-1,-0E0,7.7652305E-1,6.46744E-1,-2.1312982E-1,-1.1617598E-1,-8.7169164E-1,1.286719E-1,-7.339013E-1,-1.1089932E0,-0E0,-0E0,8.501239E-1,3.8412598E-1,-5.34119E-1,3.9019662E-1,1.0199708E0,1.138735E0,6.251889E-1,5.655356E-1,-1.9475652E-1,-8.3536464E-1,-8.8874474E-2,3.6455986E-1,-3.493933E-1,9.1387415E-1,7.66913E-2,8.275746E-1,1.0164667E-1,2.2755557E-1,-5.34844E-1,-5.168427E-1,1.9208542E-1,-9.765612E-1,-3.185028E-1,-6.786986E-2,9.054756E-1,-2.4799311E-1,-9.220106E-1,-8.3793926E-1,-1.1528972E0,6.182268E-1,-2.842526E-1,4.843163E-2,-2.0574905E-2,9.858826E-2,1.655033E-2,5.966077E-2,-0E0,-0E0,-8.026603E-2,-6.0367715E-3,6.4969614E-2,1.06026925E-1,-0E0,1.1411963E-1,-0E0,8.625582E-2,-0E0,-0E0,7.6707475E-2,1.0105418E-2,-5.5215474E-2,-4.111082E-3,-9.536491E-2,2.7811518E-2,-4.834011E-2,-0E0,6.922238E-2,-7.0851244E-2,3.9000748E-4,4.438932E-2,1.0300739E-1,5.4238893E-2,-1.5980087E-2,3.7658946E-3,9.4378754E-2,7.350526E-2,-1.1109479E-2,-2.0924727E-2,5.7597913E-2,-0E0,-8.1475E-2,-7.732975E-2,-0E0,7.069262E-2,-0E0,-0E0,-1.0106812E-1,1.3042211E-2,-6.453555E-2,4.0548727E-2,-4.7209512E-2,-0E0,1.0713398E-1,1.5889933E-2,-6.020203E-2,-1.0007503E-1,-0E0,-9.281297E-2,-1.6229777E-2,-1.154803E-1,-0E0,9.201986E-2,-0E0,-0E0,-5.5522975E-2],"categories":[],"categories_nodes":[],"categories_segments":[],"categories_sizes":[],"default_left":[0,0,0,0,0,0,0,0,0,0,0,0,0,0,0,0,0,0,0,0,0,0,0,0,0,0,0,0,0,0,0,0,0,0,0,0,0,0,0,0,0,0,0,0,0,0,0,0,0,0,0,0,0,0,0,0,0,0,0,0,0,0,0,0,0,0,0,0,0,0,0,0,0,0,0,0,0,0,0,0,0,0,0,0,0,0,0,0,0,0,0,0,0,0,0,0,0,0,0,0,0,0,0,0,0,0,0,0,0,0,0,0,0,0,0,0,0,0,0,0,0,0,0,0,0,0,0],"id":11,"left_children":[1,3,5,7,9,11,13,15,17,19,21,23,25,27,29,31,33,35,37,39,41,43,45,47,49,51,53,55,57,59,61,63,65,67,69,71,73,75,77,79,81,83,85,87,89,91,93,95,97,99,101,103,105,107,109,111,113,115,117,119,121,123,125,-1,-1,-1,-1,-1,-1,-1,-1,-1,-1,-1,-1,-1,-1,-1,-1,-1,-1,-1,-1,-1,-1,-1,-1,-1,-1,-1,-1,-1,-1,-1,-1,-1,-1,-1,-1,-1,-1,-1,-1,-1,-1,-1,-1,-1,-1,-1,-1,-1,-1,-1,-1,-1,-1,-1,-1,-1,-1,-1,-1,-1,-1,-1,